0 -0.776876 -0.52547 -0.841725 0.231754 0.479361 -0.50011 -0.0535308 -0.848273 0.86009 -0.380075 -0.741013 0.550158 -0.084395 -0.567129 0.122348 0.771803 -0.801644 0.937007 0.0870021 -0.240131 -0.28105 -0.496205 -0.204175 0.514177 -0.724446 -0.114022 -0.577027 -0.105345 -0.164055 0.292741 0.200166 0.103081 0.611633 0.499675 -0.872431 0.361568 -0.845225 -0.0548974 0.59093 -0.921148 0.869947 0.621107 0.351582 -0.234411 -0.795806 -0.140778 -0.469494 -0.510966 -0.218308 0.139513 0.49654 0.592626 1.121 -0.614435 0.464115 -0.53611 0.273047 0.725207 0.0776387 -1.0712 0.390533 -0.569838 -0.104849 0.0951831 -0.930608 -0.017076 -0.572442 -0.578562 -0.740161 0.974083 -0.598192 0.762245 0.982651 0.971324 -0.464046 0.921617 -0.0189692 0.167548 -0.695332 0.681232 -0.799448 1.0214 0.0631024 -0.932665 -0.962199 -0.415906 -0.610778 0.194718 -0.609265 0.260721 0.37251 0.607256 0.924795 -0.604419 -0.194727 1.08725 0.264629 0.347952 -1.07221 0.754953 0.297915 -0.453215 0.270028 -0.217414 -0.580225 -0.946746 -0.458264 0.0383556 -0.0219871 -0.0265063 -0.0805942 0.0130223 0.00375279 0.994636 0.349057 0.0764286 -0.443127 0.554821 -0.6647 -0.39963 -0.0676953 0.975408 -0.716892 -0.249461 -0.939967 0.365084 -0.33495 0.275505 -0.645693 -0.382887 0.164345 0.379692 0.28771 -0.452737 -0.673336 0.491904 -0.496851 -0.121689 0.0456494 0.505346 -0.80675 0.868573 -0.487279 0.199753 0.583791 0.922441 -0.571195 0.88506 0.655522 -0.570645 -0.500409 -0.311769 -0.553765 0.0101633 
0 -1.50837 -2.12786 1.21103 -0.961876 -1.59691 -0.295068 -0.0524468 1.48015 1.13141 1.38431 -0.833787 1.61918 -0.671587 0.29206 -0.00448432 1.50546 0.792673 -0.549555 -1.32091 -0.591055 -0.521985 -1.31621 -1.33227 -1.83205 0.746906 0.911973 -0.169717 -1.15975 0.562384 0.929507 0.619677 -1.21396 0.912385 1.13386 -1.90757 -0.99309 -1.35464 0.227231 -0.829337 -0.992711 -0.153838 -0.738915 1.2901 0.343901 1.93546 0.16982 -0.291054 -0.169277 0.0566978 0.184059 0.0394931 0.321149 -0.0888964 1.66098 0.68551 -0.365916 -0.249652 -0.878371 0.185749 -0.837924 0.372171 -0.31003 -0.315621 0.937656 -0.987571 -0.457441 2.455 -0.702046 2.23806 -2.13979 -1.62701 -0.104854 -0.515258 -0.458275 1.43479 1.22556 -0.320053 -1.13383 -0.450517 -1.15761 0.867176 0.71478 0.962682 0.000671454 0.35918 -0.940624 0.58679 0.470533 0.943037 0.634961 0.380471 0.314417 0.780117 -0.430864 0.11036 0.512954 0.664475 0.212157 -0.284158 -0.301734 0.740078 -0.282278 1.08554 -0.284709 -0.834659 -0.102475 0.879871 -0.680346 0.307071 0.947639 -0.454365 0.869741 1.03253 -0.55411 -0.438301 -0.217797 -2.42136 -1.24151 -0.462262 1.8798 0.524834 2.56922 0.496125 0.252502 -2.3486 -0.288746 1.674 -0.595847 1.29413 -0.0292727 1.64377 -0.236055 -1.18165 1.74543 -1.10452 1.22344 0.0181428 -0.233427 -0.828004 0.0650605 0.452623 -1.15973 0.418699 0.208481 -0.278028 0.994741 0.0420793 0.692008 -1.23816 0.54555 0.837057 -2.70769 0.896445 -0.436572 
0 1.31167 0.996014 -0.811588 -0.393978 0.944807 -0.675773 -0.378404 -0.962573 -0.628405 0.200132 -0.0907592 -1.94279 -0.78878 -0.383825 -1.00277 -1.755 -1.1974 -0.341378 0.925771 -1.12096 0.103047 0.827171 0.773695 1.42765 0.959565 -0.563182 0.26084 0.944765 0.235679 0.692344 1.05848 0.0727375 0.720494 0.739737 1.21073 0.000605306 1.21513 -1.05203 0.460449 -1.01874 0.816587 1.69982 -1.24479 -0.268533 -1.83955 -1.09926 -0.104845 -0.119659 0.604795 -0.873341 -1.11276 -1.27653 1.96102 -1.37359 1.33585 1.12195 1.09289 0.0147541 1.29011 0.737962 0.0572587 0.061017 0.808715 -0.588251 -0.229693 0.184966 -1.5264 -0.538377 -1.2192 2.03844 1.16268 0.315821 0.619801 0.733516 -2.41476 -1.56788 0.787547 1.16482 -0.120896 0.741594 1.10973 0.904408 0.835876 0.504074 -0.717758 1.64768 0.643176 -1.52089 -0.668547 0.627873 0.25617 1.30552 -0.28129 -0.335661 -1.07723 0.84741 -1.03638 0.293202 -1.55175 -0.0689682 -0.394805 0.3919 -0.150158 0.473936 -0.363667 0.511139 -0.786472 -0.844221 -1.6539 0.811352 0.824846 0.778596 0.705574 0.384615 0.751154 0.892429 1.16126 0.528118 -0.905088 -2.77553 -0.228471 -1.67937 0.875261 0.452772 1.59925 0.80237 -0.591014 1.71639 0.144526 0.61889 0.268117 -1.46309 -0.844922 -1.86237 -0.0735192 -0.997832 0.668988 1.8276 0.340513 0.572424 0.215448 1.04357 0.658099 0.222619 -0.505344 0.317502 0.191594 -1.39578 0.412897 0.629217 -0.607734 1.80355 -1.35662 1.15454 
0 0.781536 0.644747 0.573325 0.64173 0.0165587 0.0125784 0.490273 0.315485 0.482751 1.22555 -0.757061 -1.27693 0.248947 1.40699 0.254313 0.295263 0.666187 -0.428858 -0.177006 -1.0439 0.385453 -1.05559 0.431549 0.775447 -0.312963 -0.322994 0.56092 -0.779801 -0.343693 1.29178 -0.465621 -0.422119 -0.181996 -0.673271 -0.65055 -0.54053 0.456994 0.743439 0.467547 -0.508218 0.392952 0.891676 0.321135 -0.404249 0.690539 -0.614437 -1.10566 0.192203 -0.276183 0.412566 0.919838 0.311011 0.195453 0.414149 -0.206882 0.346048 0.517527 -0.309895 0.705445 -0.795477 0.741743 0.173323 -0.278569 -0.199148 0.228562 -0.114836 -0.23834 -0.495729 -0.338853 0.315953 0.261896 1.17856 -0.048776 -1.08647 -0.286971 -0.28355 -0.563703 -0.0459546 -1.43919 0.0674734 0.612078 0.684517 -0.106365 -0.287436 0.579602 -1.32942 -0.0522032 -0.0915105 -0.531942 -0.529462 0.752575 -0.309112 0.399626 -0.292401 0.759382 1.33101 -0.102628 0.431639 -0.447034 0.617945 -0.28073 0.952894 0.487466 0.671848 -0.777314 -0.285843 -0.664318 -0.354771 0.530833 -0.502167 0.713674 -0.726473 -0.947072 -0.215297 0.977045 0.970106 -0.0817792 0.0957331 -0.277264 -0.109838 -0.262416 -1.04739 0.977412 0.702489 -0.774854 0.402655 0.758176 -0.000413752 0.0544714 -0.598207 -0.557335 0.545859 -0.394085 0.638045 0.11644 -1.06221 -0.632415 0.761677 0.183108 0.404011 -1.374 -0.148342 -0.697905 -0.266742 0.320772 0.861629 -0.112907 -0.304793 -0.985088 0.00853136 0.524597 -0.00340781 0.319752 0.672016 
0 0.253896 0.671791 -0.45653 -0.611953 -0.726385 -0.249733 -0.20612 1.11419 -0.527465 -0.530789 -0.0459931 -0.277102 0.778046 -0.348559 0.582795 -0.269027 -0.110803 -0.938658 0.46399 0.678398 0.260331 0.0520388 -0.559491 0.625473 -0.11161 0.393444 0.672036 0.126385 -0.252072 -0.120189 -0.361396 -0.981324 -0.700599 0.0490257 -0.250203 -0.190138 0.550588 0.722506 0.155132 0.90888 -0.842708 1.26041 -0.418283 0.516691 0.00433172 -0.718458 0.844726 0.379453 -0.484208 0.120072 -0.178085 0.211455 0.194773 0.0290765 -0.0292943 -0.79452 -0.0920259 -0.0844043 -1.05764 0.0655028 0.374461 -0.209671 0.408345 -0.655671 0.363555 1.13951 0.184092 -0.105307 0.121121 0.274772 0.165462 0.688176 -0.117917 -0.422569 -0.224702 -1.26338 0.345788 -0.0470117 -0.00255156 0.742586 -0.627864 -0.00188661 0.0854858 -0.600718 -0.954582 -0.550638 -0.969106 -0.181406 0.167911 0.119276 -0.819706 -0.0688568 0.225884 0.820258 -0.699043 -0.356936 0.147636 0.63524 0.452712 -0.946967 -0.252455 -1.31897 0.995722 -0.180435 1.16872 -0.323546 0.433614 0.127597 0.251112 -0.0634285 0.200795 -0.691285 0.351322 -0.369143 -0.251012 1.09156 0.00303724 0.0482921 -0.411049 -0.788183 0.630696 0.163159 -0.44807 -0.235876 -0.230126 0.365908 0.495678 0.537541 -0.433816 0.219282 -0.945442 0.460871 0.237528 0.604851 -0.421257 0.802134 -0.296757 0.208064 -0.36618 0.632042 -0.314941 0.81839 0.616485 -0.611007 -0.324124 -0.73722 1.30038 0.928883 -0.142235 -0.425077 0.623349 -0.130224 0.08459 -0.746047 
0 -0.167185 0.440693 0.246211 -0.0135191 0.284572 0.551326 -0.255334 0.258806 -0.122368 0.0125208 -0.332848 -0.0628505 0.144017 0.855477 0.0638171 0.0520711 -0.296661 -0.880966 -0.154422 -0.54041 -0.0161957 0.102643 0.725474 -0.403618 -0.692061 -0.379173 -0.0359656 0.907183 -0.240478 0.374751 -0.179429 -0.530361 -0.705634 -0.409324 0.140657 -0.539688 0.358576 1.2664 0.619715 -0.402835 -0.302321 0.265128 0.119509 0.331542 0.331139 0.66269 -0.843362 0.26416 -1.00984 0.579671 0.0110004 0.119731 -0.338304 0.60355 -0.268566 -0.0803305 0.850254 0.406833 -0.573379 0.212295 -0.522546 0.0308761 0.357551 0.184598 0.203777 -0.443778 0.262612 0.0595652 -0.296504 -0.0669398 -0.210942 0.35267 -0.504346 -0.193381 -0.243273 0.253372 -0.3418 0.2724 -0.0872705 -0.381094 0.03722 -0.358606 -0.147218 0.573591 0.671349 0.325902 -0.164465 -0.231696 0.224457 -0.0847007 -0.457472 1.01471 0.734483 0.0563271 -0.125727 -0.352024 -0.300669 -1.02601 0.52816 -0.209123 0.453413 0.746319 0.0538344 -0.18467 0.151368 -0.250913 -0.152776 0.487052 -0.554974 0.570593 -0.409923 0.101841 -0.751415 0.711634 -0.533644 0.564998 0.043762 -0.304182 -0.0376565 -0.399014 0.702695 0.430202 -0.480853 0.341912 -0.0820371 0.811444 -1.08968 0.109005 -0.239638 -1.56045 0.530305 -0.101587 0.0968522 -0.093688 0.289472 0.257066 0.539321 -0.173355 -0.481382 -0.0224637 -0.432187 0.208024 -0.257944 -0.134164 0.506661 0.443084 -0.514531 0.232563 -0.269355 0.579675 -0.414407 -0.216543 -0.407537 0.436116 
0 0.368511 -0.272483 0.0181261 -0.19047 -0.0536129 0.79311 -0.209611 0.0371901 0.585888 -0.241355 0.0134842 0.128648 -0.732081 -0.120972 0.0715019 0.0392762 -0.420878 -0.0992162 1.29648 -0.0453069 -0.213662 0.117043 0.390108 -0.611262 0.937193 0.369734 0.533232 -0.0937982 -0.192932 0.135486 0.724012 -0.069227 -0.810082 0.445775 -0.225496 0.557626 -0.100468 0.57263 -0.750001 0.542405 -0.667954 0.439646 0.208266 -0.411446 0.0371143 0.212399 0.522609 0.445115 1.12805 0.467599 0.03436 0.525466 -0.116263 -0.66636 -0.146396 0.534318 -0.564268 -0.138719 0.545324 0.276909 0.57759 0.545193 0.194712 -0.795043 0.264172 -0.568208 -0.100671 -0.320541 0.955656 0.367519 -0.405831 -0.402399 -0.049437 0.259356 -0.281628 0.682519 0.104225 0.135483 0.242186 -0.497434 0.178883 0.527054 0.240178 -0.414879 -1.09237 0.193507 0.407167 -0.318252 0.185327 -0.156811 -0.210954 0.182834 -0.393134 -0.446029 0.658314 -0.900306 -0.357902 -0.238929 -0.139296 -0.110465 -0.0514469 0.191609 0.198661 0.750136 -0.196039 0.354208 0.0509381 0.143631 -0.597931 -0.305599 -0.677164 0.297758 0.191156 0.0643425 0.84464 -0.00938527 0.18329 0.0507176 0.531268 -0.396028 -0.71321 -0.0226826 0.912964 -0.00996077 0.00840106 0.616649 0.0993597 0.172836 -0.266331 0.84743 0.894558 0.19403 -0.498537 0.154984 -0.311648 -0.0143357 -0.803085 -0.459717 0.142025 -0.147531 0.124206 0.653836 -0.10132 -0.426642 -0.287067 -0.395097 0.781744 0.481508 0.312282 0.428082 0.740723 0.0377132 0.574406 0.599726 
0 -0.268472 0.313886 0.212313 0.425891 -0.0706819 0.925708 -0.276749 0.615087 -0.821335 0.743796 0.222388 0.365807 -0.278779 0.744362 -0.129318 0.205753 0.154889 -0.919285 -1.0549 -0.778722 -0.0759874 0.287226 0.495195 -0.0886715 -0.425803 -0.463787 0.0495442 -0.950231 -0.197526 0.0579539 -0.324783 -0.782264 0.723196 -0.699213 0.476994 -0.53639 -0.379621 -0.215409 1.41032 0.0626126 0.0659575 -0.221068 0.25952 0.299571 -0.577179 0.582582 0.434665 -0.709808 0.54762 -0.752707 -0.756086 0.456432 0.21523 -0.790533 0.372963 0.724681 0.373829 0.182781 0.912399 0.363425 0.0746222 -0.228813 0.785984 0.217416 1.07962 0.667269 0.211102 -0.409279 -0.279703 -0.302752 0.309919 0.826381 -0.601341 0.653352 0.393007 0.0447281 0.558989 -0.226557 0.584575 0.451767 0.394715 0.643821 -0.57784 -0.750721 -0.245957 -0.208006 0.593109 0.0659486 -0.272366 0.591864 -0.860521 -1.2257 -0.424491 -0.913116 0.460856 -1.04137 0.307203 -0.33189 -0.202127 -0.448672 0.323347 0.278629 -1.10511 0.58963 0.795883 0.569939 -0.224015 -0.734906 -0.62368 -0.0888762 -1.0026 0.0610294 -0.538576 -0.578629 0.548539 -0.785166 -0.0926743 -0.149666 0.397878 0.404302 -0.307239 0.640212 -0.917926 0.301066 0.489694 0.245477 0.299361 0.524284 0.484179 -0.0438413 0.464509 0.432763 -0.360451 -0.407185 0.391477 0.185701 0.644259 -0.528696 0.139312 -0.737747 0.228267 0.872414 0.805266 0.3291 0.623369 0.18932 0.4351 -0.545708 -0.383193 0.298276 -0.422214 -0.395371 -0.10917 -0.207787 
0 0.140818 0.326884 -0.946917 -0.422914 0.517122 -0.171378 -0.539523 -0.130766 -0.21061 -0.0495318 0.320674 0.297296 -0.823369 -0.781011 -0.249206 -0.622199 -0.0475858 0.992435 1.48111 -0.458271 0.699746 -0.437724 -0.522843 0.0735644 0.258726 0.891152 0.0105063 -0.69651 -0.425472 0.613647 0.136272 0.891681 0.845662 -0.513762 -0.97621 0.0542968 0.365899 -0.466471 0.579591 -0.63696 -0.114493 0.966842 -0.197954 0.100518 -0.390798 0.645394 0.547626 0.130127 0.170865 0.246655 -0.137275 -0.459823 -0.381875 0.190883 0.346694 0.786157 -0.150131 0.897569 -0.610868 0.68083 0.677149 -0.115137 0.139059 0.745905 -0.147009 0.265416 -0.196254 -0.701509 1.03077 -0.107631 -0.411578 0.208767 -0.464927 0.641707 -0.782164 -0.155638 0.467959 0.320286 0.232687 -0.170745 -0.246469 0.0071959 -0.179898 0.0848938 -0.466245 -0.893842 -0.133491 -0.516225 -0.84349 -0.179588 -1.01487 0.504887 0.259317 0.546534 -0.247271 -0.369334 -0.436571 0.608567 -0.249583 -0.629158 0.386892 0.482294 0.561567 -0.391765 -0.0259122 0.706401 -0.233239 -0.818945 0.224068 -0.829505 -0.357926 -1.15977 -0.245312 0.664815 0.352366 -0.324213 0.696388 0.00529974 0.92285 0.514994 0.328833 0.176141 0.475064 -0.10364 0.578788 -0.440524 1.23909 -0.971615 -0.837073 0.468223 0.279044 -0.746116 -0.710571 -0.466824 -0.771353 0.194186 0.591529 0.421468 0.570891 0.0738344 0.146047 -0.238408 -0.00600401 -0.803164 -0.710013 -0.281599 0.335123 0.607896 0.265707 -0.395483 0.199722 -0.309527 -0.247407 0.41234 
0 0.621523 0.374851 -0.531373 0.664885 0.398665 0.395922 -0.688449 0.542393 0.865847 -0.479483 -0.349237 -0.00600111 -0.456864 0.43488 -0.210666 0.0680567 -0.0133458 -0.0717216 -0.0750045 0.106792 -0.139017 0.335392 0.655502 -0.136999 -0.830788 -0.674787 -0.862309 -0.768398 0.0437473 -0.070619 0.610972 -0.230773 -0.156471 0.118289 0.988075 -0.246836 1.04873 -0.957057 -0.762716 0.570822 -0.21484 0.00299694 -0.526431 0.126673 -0.487372 -0.102368 -0.164985 0.471057 0.623796 -0.0461918 -0.0791593 -0.23991 -0.162565 -0.706087 0.516532 -0.0953331 -0.460347 -0.224147 0.14167 -0.164732 -0.202615 -0.24147 0.479929 0.150602 0.111037 0.548042 -0.53842 0.251059 0.770775 -0.424765 0.0271163 -0.430716 0.406123 0.570162 -0.0180915 -1.11675 -0.555103 -0.541588 0.569313 -0.625255 0.409336 0.885912 -0.0892157 1.05597 -1.40516 -0.627801 -0.413486 -0.321607 0.666911 0.704467 0.607682 -0.472008 -0.535693 0.468205 0.378647 0.308734 0.0640023 0.509387 0.0792345 -0.675898 -0.921421 0.0124241 0.278382 0.302002 -0.661227 -0.460303 0.368731 -0.109877 0.31193 0.345546 0.132407 -0.0602772 0.0211441 -0.848366 -0.158666 0.0856198 -0.368468 -0.447097 0.790663 0.478885 -0.173574 0.254286 -0.959737 0.0789478 -0.00442008 -0.041753 -0.138496 0.270314 0.0190576 0.0926805 -0.824465 -0.593787 -0.993363 0.277153 -0.659686 -0.583139 -0.471192 -0.294315 0.452732 0.373132 0.625241 -0.65956 -0.654533 -0.276771 -0.212025 -0.184293 -0.654146 -0.17824 -0.5967 0.625055 -0.393833 -0.0548296 0.692943 0.0511663 
0 0.00621067 0.052693 -0.210648 0.762197 -0.270213 0.609986 -0.672399 -0.194394 0.404779 0.114506 0.242583 0.191478 0.650253 0.225921 -0.295974 0.0948772 -0.157474 0.456291 0.233691 -0.372935 -0.180528 -0.577231 -0.173118 -0.142666 -0.379389 -0.832268 0.879968 0.193564 0.203704 -0.0620499 0.195705 0.367849 0.110317 -0.630489 0.741356 -0.140008 0.345745 -0.706225 0.280904 -0.14194 0.695686 -0.0489414 -0.363569 0.122348 -0.313863 0.320555 -0.377764 0.742787 0.411583 -0.12724 -0.162684 0.340892 0.0213498 -0.354501 0.0228387 0.234113 -0.311218 -0.149913 -0.648808 -0.212718 -0.0442722 -0.465677 -0.995691 -0.337389 -0.980114 0.545766 -0.156403 0.540291 0.522891 -0.178656 -0.217266 0.372598 0.0801688 -0.174955 0.256086 0.469736 -0.332094 -0.0295808 0.179906 0.245245 0.162046 0.132277 0.246294 -1.08135 0.263029 -0.0478951 0.133295 -0.243349 -0.578255 0.173062 -0.230599 0.0520449 0.425671 -0.240563 0.875341 0.675099 -0.839783 -0.105944 0.112375 -0.61077 -0.108887 0.168056 0.137653 -0.283128 -0.523215 -0.256526 0.151629 -0.0422265 0.26971 -0.0799257 -0.332758 0.317178 0.449249 0.670581 -0.0111101 0.354716 0.305498 -0.43201 0.44 0.229184 -0.77852 0.033515 -0.183413 0.865068 0.678092 -0.0159246 -0.0379494 0.0326823 0.399677 -0.158181 0.3932 -0.341942 -0.504603 0.26211 -0.342022 -0.222999 0.247341 -0.256324 0.17324 0.672373 -0.141985 -0.0929597 -0.116793 -0.736832 -0.0333992 -0.227445 0.0907875 -0.418912 -0.119833 -0.243446 -0.15984 -0.0274037 -0.160922 -0.143873 
0 0.0613723 0.0994198 0.0240286 -0.780793 -0.077187 0.471019 -0.506762 0.151844 0.861276 -0.0976299 -0.321538 -0.227186 0.281593 -0.468327 -0.0390836 0.00863324 0.0388397 0.0773647 0.15894 0.162325 -0.215167 -0.243217 -0.372213 -0.0391209 0.663422 -0.11182 -0.392766 -0.192753 0.633233 0.0511257 -0.026845 -0.588113 -0.15408 0.0948343 -0.497763 0.0916113 -0.0294457 -0.407414 0.130146 0.148188 0.609043 0.224136 0.119485 -0.218593 0.0464092 -0.00308571 0.140818 -0.660618 0.11877 0.0144629 0.0670402 0.0842124 0.32643 -0.206166 0.395326 0.119006 -0.137778 -0.385567 -0.0275714 -0.205734 -0.150577 0.120413 -0.171347 -0.212522 -0.526016 -0.268663 0.168569 0.705275 0.217415 -0.259945 -0.122441 -0.342296 -0.246618 -0.0912534 0.0743899 0.433532 0.444905 0.0994954 0.618708 0.0180955 -0.149686 -0.137717 -0.426121 -0.337777 -0.431702 -0.145151 0.528711 0.168046 -0.311912 -0.327791 -0.1985 0.175391 0.138108 0.0520896 0.373468 -0.0392241 -0.604316 0.304737 -0.0232089 0.233668 -0.361611 0.120695 -0.100631 -0.183504 -0.277744 0.284626 -0.0964539 0.713012 -0.142053 0.238495 -0.198342 0.455022 -0.103068 0.320345 -0.205839 -0.0411349 0.225995 -0.269074 -0.62984 -0.00357908 -0.0790106 -0.1529 -0.82913 -0.244947 0.19849 -0.584066 0.0786557 -0.0518346 0.203279 -0.159145 0.492996 -0.441648 0.0160973 -0.175061 -0.0787991 0.23618 -0.555405 0.107726 0.305713 0.299743 -0.259808 -0.3678 0.133829 -0.654164 0.0238396 0.301366 -0.185873 0.184176 0.117113 0.079307 0.174485 -0.0284046 0.083865 0.324814 
0 0.0715097 0.904449 -0.110647 0.241217 1.01911 -0.921165 0.313558 -0.566446 0.566622 0.0167104 0.254291 -0.0745645 0.108594 0.513918 -0.400255 -0.207226 0.788804 -0.49145 0.283377 0.144219 0.973149 -0.117093 0.414482 0.268622 -0.287014 -0.263247 -0.275915 0.488953 0.381176 -0.373755 -0.689859 0.158179 -0.678712 0.347122 -0.427809 -0.773699 0.0953663 0.38025 0.0349265 0.127284 -0.0548182 0.591917 0.461232 -0.56924 0.182929 -0.790137 -0.200145 -0.85376 -0.492385 -0.238448 0.858556 -0.477455 0.152825 0.666718 0.125388 -0.585611 -0.617909 -0.967222 0.586863 -0.989305 -0.387137 -0.499691 0.0827956 0.195437 0.617041 0.620521 0.0533263 0.0957544 0.186955 0.979724 0.274977 -0.903686 0.502939 0.357648 -0.131391 -0.984721 -1.25493 0.674481 -0.0318928 -0.13822 -0.781201 0.0636304 -0.243991 0.706325 -0.64938 -0.287398 -0.745731 -1.21682 -0.410722 0.670041 -0.474692 0.0751775 -0.937606 0.57641 -0.685097 0.454317 0.0127215 0.909523 -0.177479 -1.23726 0.425787 -0.0999174 -0.551521 0.019282 -0.37062 -0.457161 0.241642 -0.8441 -0.692792 -1.13375 -0.130149 -0.684084 -0.566147 0.461194 -0.751531 -1.08787 0.243121 -0.192204 -0.181614 0.648328 -0.704087 0.215116 -0.489776 -0.54984 0.0596299 -0.463186 -0.791789 0.61862 -0.897576 -0.261214 -0.720212 0.687679 0.0170792 -0.19295 -0.622572 0.458747 0.910556 -1.061 0.811709 0.63724 -0.489223 -0.482197 -1.17716 -0.240683 -0.636077 -0.63391 0.219426 0.157953 -0.679016 0.393654 -0.333575 -0.114275 0.174051 0.463387 
0 0.244489 -0.138757 0.52816 0.691738 -0.126733 -0.839051 0.474308 -0.463015 0.517472 0.0327387 0.25358 0.0316197 0.476974 0.220278 -0.198101 -0.269261 0.402865 -0.00442505 0.341534 -0.517358 0.50387 0.057123 0.122135 0.193744 -0.850185 -0.209013 -0.495359 0.312494 -0.361171 -0.461853 -0.384093 -0.177521 -0.0596863 -0.481788 0.357199 0.258437 -0.276464 0.678177 0.409299 0.477061 0.715069 -0.192078 -0.0654232 -0.0442695 0.735715 0.513798 -0.555141 0.270074 -0.171796 0.559549 0.20694 -0.0758599 0.0977665 0.136729 0.866721 0.319871 0.205046 -0.129882 -0.442498 -0.89996 0.111439 0.126989 -0.814922 -0.0101338 0.0482181 0.684016 -0.0204712 0.532282 0.0884463 0.857324 0.254904 0.245526 0.397534 -0.39659 0.0491522 -0.0555774 -0.505414 0.0286035 -0.243992 0.262871 -0.262936 0.270562 0.58145 -0.437059 -0.0442614 0.432592 0.248997 -1.0063 -0.490249 -0.497954 -0.239299 0.584176 0.199628 0.240707 0.501243 -0.206019 -0.115811 0.444319 -0.45259 0.926164 0.271763 0.112963 -0.479474 -0.393852 -1.00607 0.479313 0.352224 -0.416224 -0.684161 0.522307 0.646999 -0.137749 0.217246 0.406113 -0.0110548 0.385229 -0.0118043 -0.304125 0.438253 0.284301 -0.258366 0.451528 -0.48183 -0.98481 0.0278081 -0.450342 -0.755069 -0.408569 0.0741559 -0.0306543 -0.242777 0.406377 0.322764 0.104341 -0.313444 -0.135757 -0.408641 0.163317 -0.0414612 0.229661 -0.0549143 -0.636658 -0.206798 -0.275692 0.655979 0.334889 0.384239 -0.160863 -0.520819 -0.0580041 0.565198 0.00601916 0.202979 -0.0325905 
0 0.0163409 -0.0357396 0.09863 0.461181 -0.38642 -0.274899 -0.423379 -0.0364431 -0.185901 0.119108 0.399054 -0.0467344 -0.0040014 0.0429854 -0.321849 -0.237449 -0.124833 -0.291126 0.241785 -0.264685 0.105136 -0.11858 -0.0354738 -0.0150123 0.747997 -0.0670764 -0.598183 0.159988 -0.131713 -0.343722 -0.010572 -0.276621 -0.148886 0.0525685 -0.14544 -0.261609 0.0338828 -0.37495 0.418697 0.284823 -0.884977 -0.166566 0.0453636 -0.153675 0.0474353 0.115389 -0.238544 -0.175639 -0.133022 -0.372786 0.256527 0.00092005 0.114624 0.0205899 0.383346 0.277971 0.161644 0.197804 -0.653591 -0.556847 -0.425865 0.102769 -0.83598 -0.00656282 -0.288267 -0.499991 0.105719 0.701933 -0.119785 0.170262 0.113879 -0.400529 0.0437284 -0.0530058 -0.0203996 0.29149 0.290112 -0.138466 0.0587427 0.213315 0.434383 0.20482 -0.620942 0.330688 0.202292 -0.111453 0.00517426 -0.381653 -0.289888 -0.311281 -0.278286 -0.174693 -0.456309 0.106878 0.145774 0.373319 0.0851865 0.248587 -0.057918 0.431655 0.326443 -0.0457934 -0.384325 -0.0718734 0.107065 0.110524 0.0873191 -0.189736 -0.390966 0.475929 -0.153914 -0.294951 0.21497 0.252838 -0.0868258 0.211429 0.114123 -0.0483045 -0.882192 0.470182 0.669907 -0.0340749 -0.56881 -0.480187 0.0073116 0.404128 -0.201537 -0.171202 -0.038791 0.0230178 -0.155778 0.135146 -0.0912694 0.0296919 -0.14883 -0.0822274 -0.440413 0.210271 0.568189 0.267649 0.261515 -0.327733 0.380429 0.162341 0.204464 0.0236682 -0.0343082 -0.154021 0.0905881 -0.10885 -0.000282537 0.0215875 0.213583 0.0227391 
0 0.890186 0.371693 0.925688 -0.0719445 -0.0604618 0.180995 0.886213 0.451676 -0.898778 -0.0147333 0.729149 -0.240012 0.077551 0.397789 -0.968171 -0.38702 0.351636 -0.158608 0.729391 -0.0265501 -1.00087 -0.0124036 0.379957 0.765592 -0.181686 -0.0557111 0.00595279 -0.602199 -0.128403 0.545916 -1.27088 -0.503788 -0.550323 -0.718114 0.104144 0.311702 0.413865 -0.151422 -0.695438 0.41606 1.04866 -0.795908 0.849621 0.742574 -1.18294 -1.15848 0.64998 0.508012 0.0295811 1.04956 -0.266043 -0.0304018 0.103228 -0.711837 -0.63987 0.754502 0.251694 0.932918 0.893269 0.690285 -0.401792 0.90338 -0.929291 -0.261542 1.01456 0.435164 0.69271 0.422569 -0.735542 -0.562069 -0.0528504 -0.572767 -0.223204 -0.239626 1.13327 -0.480106 -0.0113904 0.819161 1.16405 0.810347 0.192262 -0.787321 -0.418218 -0.978438 -0.17502 -0.29085 1.0927 0.602269 -0.816987 1.06544 0.162941 -0.420936 0.552994 0.232976 0.702494 0.58667 -0.299768 0.555306 -0.0812232 0.444193 0.427438 -1.06735 0.312943 0.852733 -0.173559 0.31402 -0.603007 0.700583 -0.539851 -0.705114 0.436906 -0.658009 0.132551 0.676714 -0.456305 0.47633 -0.0184065 -0.915382 -0.136328 0.0456229 -0.563069 0.798868 -0.899914 -0.881852 0.158128 0.734716 1.07749 0.720457 0.136686 0.0242676 -0.287863 -0.719229 -0.0316018 -0.57853 -0.950744 0.682654 0.845376 -0.10365 0.330626 -0.545968 0.473706 -0.483686 -0.474008 -0.863682 -0.459816 0.486921 0.473922 0.0357055 -0.908979 -0.934602 -0.448005 0.162865 0.994616 -0.287965 
0 0.0917026 -0.506291 -0.132659 -0.260184 -0.00488628 0.644635 0.304202 0.734036 -0.879582 0.962737 -0.770653 -0.821592 0.738467 0.1809 0.892062 -0.824239 -0.4715 -0.718026 0.254003 -0.386495 -0.0866051 -0.877584 1.37126 -0.791782 -0.607716 -1.00368 -0.444341 -0.350826 -0.937228 -0.305873 0.623298 0.342441 0.417542 0.909345 1.03123 -0.0447549 0.527774 0.63338 0.247163 0.663611 0.638493 0.377127 0.449519 -0.0505978 -0.317199 0.620965 0.67979 -0.0862452 0.516807 -0.992388 0.29887 -0.515381 -0.62091 0.22474 0.257621 0.247685 0.415792 0.284263 0.972834 0.720524 -0.148493 0.443546 -0.0609579 -0.315792 0.309732 -0.125635 0.630414 -0.194914 -0.293575 -0.150999 -0.763874 -0.927255 -0.554028 0.918786 0.187903 -0.147766 0.33755 -0.0856637 0.40597 -0.152706 0.354328 0.937756 0.479815 0.801388 -0.0124407 0.0174775 -0.485996 -0.202301 -0.518148 -0.827273 -0.346125 0.527255 0.774136 0.965796 0.793557 0.0166501 -0.372295 0.587475 0.554967 0.221362 -0.0631794 1.11739 0.343456 0.147627 0.75663 -0.0998083 0.572494 -0.130328 0.69236 0.770142 0.81742 -0.553453 0.0448307 0.700672 -0.841623 -0.699338 -1.10032 -0.118585 0.374812 -0.600746 -0.232443 -0.369789 0.422379 -0.596979 0.513366 0.393949 0.27493 -0.509934 -0.0580276 -0.282357 0.917467 1.13801 -0.307271 0.0493289 0.393531 -0.480184 -1.20593 -0.141299 0.333962 0.810776 -0.336639 0.412541 -0.45648 -0.698588 -0.400516 -0.503172 0.0539946 0.090854 0.26786 -0.623972 -0.0720694 0.754271 -0.161129 -0.553287 
0 -0.245584 0.828699 0.882326 -0.107781 0.283744 -0.841715 -0.0884288 -0.345106 0.531896 -0.367167 -1.01349 0.622776 -0.504675 -0.462831 0.521436 -1.07325 0.994438 -0.33252 -0.0147614 -0.783255 0.269203 -0.515703 0.322095 -1.02534 -0.790702 0.49227 0.195492 -0.926152 -0.517642 0.573251 -0.36258 -0.138157 0.807062 -1.17941 -0.635299 -0.123128 -0.327626 0.0247425 1.40503 -0.839687 0.358063 1.24969 -0.80713 0.496991 -0.451528 0.656435 0.728694 -0.363344 -0.984892 -1.01131 -0.0497116 1.06948 0.4393 1.05011 0.913137 0.427311 0.562748 -0.0769573 0.668326 0.576547 0.0648393 -0.975638 -0.915189 -0.425737 -0.761851 -0.899109 0.340431 0.00631686 -0.00449588 0.00441968 0.499933 -0.743723 0.493824 0.0721914 -1.15622 0.270846 0.0403824 0.708561 -1.11683 0.0889906 0.577432 -0.541835 -0.211655 -0.167725 -0.380631 0.00762466 -0.298141 0.454424 0.529619 -1.2492 -0.357419 -0.186156 -0.689486 0.021047 0.356346 -0.427532 0.617653 0.258892 0.303489 -0.670687 -0.664356 -0.345887 -0.434768 0.395811 0.483499 -0.186923 -0.923253 -0.411602 -0.247073 -0.588565 0.930136 -0.628218 0.48871 -0.324894 1.15193 0.479466 0.0950674 -0.413861 0.580753 -0.14604 -0.101734 -0.39467 -1.01942 0.220429 0.479475 0.591384 0.578441 -0.175647 -0.752587 0.18093 -0.0925709 -0.448271 0.111347 0.986208 1.00354 -0.00114137 -0.276723 -0.0765808 1.31451 0.421402 0.23025 1.18018 0.762521 -0.634074 -0.624939 0.801587 -0.732347 0.775127 -0.444651 0.718868 -0.173636 0.346318 -0.727776 -0.0932614 
0 0.755682 -0.535683 -0.964944 -0.199459 -0.134105 0.161973 0.359826 0.640498 -0.179943 0.2562 -0.153294 -0.326632 -0.969597 0.178969 0.79855 0.632848 -0.793791 0.51219 0.358627 -0.46748 -1.16696 0.552448 -0.271226 0.929703 0.479482 -0.578775 -0.33645 -0.225476 -0.0984302 0.775368 -0.230814 -0.206629 -1.29174 0.560494 -0.187505 0.0219746 -0.630798 -0.461184 -0.82263 0.133756 -0.70154 0.43773 -0.159408 -0.191391 0.540494 0.0205145 1.23047 0.656652 0.0444864 0.54754 -0.605663 -0.250298 -0.438096 0.431565 -0.1466 1.40297 -0.686761 0.561166 -0.334041 0.00845385 0.316669 0.513089 -0.914263 0.568991 -0.275352 0.374157 -0.662247 0.237566 -0.790182 0.1978 -0.427793 -0.696452 -0.406886 0.55957 0.0922877 -0.232712 -0.171864 -0.0642983 -1.04317 0.908431 -0.520187 0.185054 -0.477668 0.067321 -0.605264 0.468981 -0.149993 -0.341949 0.376409 0.707998 -0.951553 -0.768505 -0.249703 -0.449581 1.0561 0.715596 -0.160199 -0.600702 -0.266581 0.714607 0.410773 0.189321 0.735743 -0.582311 0.00930757 -0.729813 -0.124416 0.277266 -0.176088 0.112535 0.0629896 0.334961 -1.12324 0.689411 0.920282 -0.379473 0.106088 -1.02654 -0.0121687 -0.601215 0.739021 0.242948 -0.40177 -0.328146 -0.241042 -0.430275 -0.586111 -0.456153 -0.016498 0.00228484 -0.64135 -0.451088 -0.168385 0.31745 -0.269337 0.363308 -1.00257 0.595033 -0.446644 0.118811 0.141686 0.621151 -0.561318 0.0929402 0.499254 -0.90523 0.809135 -0.56366 -0.37846 -0.216813 -0.463317 -0.214969 0.81599 0.26815 
0 -0.235761 0.917957 0.852492 0.689757 -0.455962 -0.0155427 0.366641 -0.0193976 0.505921 0.159398 0.702948 -0.0432653 0.302657 0.939664 0.27459 0.22633 -0.152339 0.0849701 0.52736 -0.890656 -1.10945 0.506931 0.447325 0.128546 -0.926504 -1.00913 0.539171 -0.102996 -0.90571 -0.482964 1.20479 0.32357 -0.964794 0.255309 -0.271967 -0.233409 -0.672738 -0.420516 0.661204 0.894518 -0.648621 0.660412 -0.266064 0.858982 0.188911 -0.682195 -0.106879 -0.558621 0.268675 0.327807 -0.525087 -0.846971 -0.365275 -0.664571 0.231548 -0.0882805 -0.424924 -0.449355 0.466516 -0.111521 0.482143 0.239158 -0.876473 0.602055 0.181762 0.168195 -0.493036 0.340697 0.827452 -0.636423 0.224419 -0.948708 -1.09331 0.335687 0.660405 0.328973 -0.831401 -0.480414 0.924466 0.801741 0.746384 -0.641324 0.825556 -0.24402 -0.408238 0.13125 1.0468 -0.396325 0.6181 0.0408544 0.369606 -0.0366367 -0.740654 1.00669 -0.411298 0.978199 0.101988 0.551324 0.0734738 0.0881501 0.968409 -0.899127 -0.051779 0.443939 1.2121 0.284946 -0.040438 -0.818577 -0.0139541 0.0417324 1.01203 -0.0815055 0.549425 0.646752 0.602363 -0.779736 -0.544089 0.573758 -0.0481621 -0.382576 -0.582903 -0.42514 0.202006 0.0940562 -0.544858 0.783251 -0.0738007 0.488893 -0.0414022 0.221208 0.0886649 0.0866099 0.544691 0.828262 -0.490629 0.542567 -0.51099 0.62098 0.636603 0.978387 0.342273 0.640628 -0.609928 -0.44782 -0.165717 -0.49302 -0.114042 0.921314 0.697144 0.709764 -0.771243 -0.951436 -0.198501 -0.150589 
0 0.330835 0.197246 1.04142 -0.41474 -0.77127 0.422514 0.406547 -0.0950732 0.431687 0.289477 0.895213 0.398049 0.747656 0.0675731 0.194992 0.13907 -0.222687 -0.148314 -0.861455 0.464338 0.726122 -0.706592 -0.266588 0.0326565 -0.823364 -0.09677 0.351677 -1.3476 0.36501 -0.365113 -0.0584159 -0.472371 -0.712195 0.417646 -0.0531299 -0.3489 -0.200001 -0.984422 0.760466 -0.717436 -0.199546 -0.207287 0.539291 -0.628406 0.226507 -0.580595 0.17305 0.375084 0.522963 0.478106 0.453628 -0.445033 -0.764634 -1.22651 -0.781201 -0.527606 -0.0869795 0.578219 -0.655499 0.755098 -0.498879 0.879325 -0.919111 -0.511893 -0.402592 -0.121623 -0.246532 0.731013 0.480407 -0.457234 1.07286 0.720266 0.850855 0.861705 -0.745715 -0.642484 1.0495 0.442878 0.609903 0.132712 0.435391 0.152279 0.654551 0.177358 -0.0176492 0.717287 -0.0940891 1.431 0.72944 0.711692 0.872731 0.896613 0.433642 1.07458 -0.614777 0.633084 -0.303232 0.0678243 0.460649 0.9839 0.586454 0.323901 0.606402 0.299792 -0.377 0.41034 0.316629 -0.583386 0.420804 -0.28783 0.587512 -0.667265 0.793549 0.545686 0.773805 -0.502959 0.172545 -0.612259 -0.208408 -0.481493 -0.776582 -0.0733686 -0.392251 0.241854 -0.410813 0.216891 0.0340347 0.488802 -0.571868 -0.489328 -0.00751101 0.654745 0.82908 -0.0497384 -0.0846893 -0.255703 -0.435614 -0.751415 0.356704 0.621573 -0.107991 -0.0779028 -0.534813 -0.0756817 -0.557081 0.639683 0.878785 0.597425 -0.508406 -0.399148 -1.00314 -0.093768 0.157489 0.317042 
0 0.763161 0.741345 -0.104067 0.5163 -0.754685 0.432197 -0.00394225 -0.668096 0.379147 0.952813 0.157926 0.41896 -0.342146 0.0475217 -0.201209 -0.658043 -0.80635 -1.37835 -0.610814 -0.235771 -0.636481 -0.832186 -0.819012 0.756456 -0.414486 -0.31469 -0.802882 0.507249 1.31316 0.0438489 0.421237 0.61559 -0.0338872 -0.124758 0.454319 0.683375 0.735281 -0.611042 0.674222 0.275388 0.832088 -0.250478 -0.626607 -0.846981 -0.425307 -1.0809 -0.616454 -0.557578 -1.05807 -0.330671 0.0791142 -0.701 -0.504065 0.532315 -0.447023 0.260621 -0.663598 -0.353537 -0.233684 -0.921998 0.625957 -0.935951 -0.857879 -0.195398 -0.474664 0.631029 -0.441712 -0.380308 1.02975 -0.861827 0.765243 0.130866 0.142768 -0.639706 0.621308 0.184388 -0.674892 -0.601642 0.512645 -0.281614 0.0850542 -0.256768 -0.117426 0.531825 -0.778993 0.376416 0.305162 -0.482135 -0.620305 0.394875 -0.217752 1.45611 0.793447 -0.213376 -0.0773208 -0.879753 -0.81936 0.384711 -0.382627 -0.413892 0.557818 -1.23113 0.409381 -0.759266 -0.300585 0.301549 0.275005 0.190852 0.455834 -0.244888 0.739154 -0.666002 0.387645 -0.138283 0.986734 0.342698 -1.08455 -0.871436 -0.773624 -1.13211 -0.48079 0.4564 -1.0038 -0.786078 -0.692903 0.297948 -0.561626 -0.178468 -0.761718 0.248787 -0.309271 0.597744 0.0541329 -1.00807 -1.00358 -1.22524 0.890354 0.621069 0.424167 0.511595 -0.21231 -0.0982793 0.77931 0.748035 0.892666 0.765565 0.658257 0.825704 -0.134413 1.00517 0.586073 -0.122469 -0.0241861 0.896935 
0 0.278086 -0.34549 1.11357 0.691002 -0.130347 -0.11832 -0.778102 -0.801723 -0.692557 -0.117433 -0.447515 0.102702 -0.485331 -0.902377 0.842653 -0.741647 -0.571337 -0.107448 0.705187 -0.763252 -1.01096 0.508819 0.973065 0.365655 -0.410727 0.633466 0.155003 0.577233 -0.391058 -0.44356 0.0759363 1.05367 0.468971 -0.0697873 0.353301 -0.643663 -0.564166 0.49169 0.262029 -0.533795 0.0698656 0.682814 0.332651 0.824263 0.47067 -0.0442128 0.939737 -1.03158 0.316915 0.669743 -0.203711 0.199803 0.844963 -0.750648 -0.0947414 -0.580701 0.966383 -0.921923 0.846664 -0.781307 0.20436 0.166185 -0.815428 -0.555267 -0.785848 0.544557 -0.50583 -0.664552 0.682557 0.620475 0.359107 -0.133443 0.52874 -0.716196 -0.694738 0.252275 0.215663 0.96496 0.310517 1.07634 0.567001 0.886942 0.279618 0.161652 0.760845 -0.863971 0.0826957 0.654965 -0.966005 0.327239 0.68966 -0.495137 -0.556461 -0.599976 0.629526 -0.365197 0.857359 -0.526712 -0.164137 0.134158 -0.83115 0.931721 -0.861745 0.653715 0.7701 -0.66971 -0.160457 -0.435785 -0.455324 -0.650737 -0.0764126 1.03352 1.10308 -1.03149 0.26489 1.08279 -0.653407 -0.31951 0.0183925 -0.578594 0.820977 -0.0362142 0.385684 -0.901886 -0.740975 -0.258146 -0.326139 -0.708828 0.227019 0.0550389 -0.741326 0.734931 0.231174 -0.927001 0.25755 0.0175137 -0.836681 -0.837522 0.653424 -0.54391 -0.521633 -0.0909015 -0.568757 -0.432904 -0.416143 0.77428 -0.753207 -0.303673 -0.549676 -0.0479699 0.0765631 -0.527241 -0.807656 -0.511145 
0 -0.280862 0.606017 -0.328533 0.64435 0.114145 -0.754826 0.752898 -0.338812 0.367308 1.22178 1.03898 -0.508321 -0.569537 -0.196147 -0.121002 -0.304633 -0.190357 0.398472 0.203438 0.347686 -0.546456 -0.460938 0.638974 0.157071 0.267247 0.0775907 -0.979956 0.535678 0.166599 0.0173757 0.982038 0.927392 -0.786215 -0.377233 0.66246 0.447444 -0.261723 0.0778061 0.914635 -0.810392 0.00725138 0.766082 0.0704693 -0.124655 -0.786321 0.633538 0.518217 -0.121323 0.0889479 -0.527885 -1.05855 0.657686 1.01862 0.743921 -1.46075 -0.258168 -0.567784 -0.52803 -0.640618 0.39418 -0.224144 -0.715371 0.390885 0.186179 0.0902399 -0.00756852 -0.391064 -0.835923 -0.621927 -0.113298 -0.534978 0.260746 -0.348863 0.563567 -0.568759 -0.216614 0.414067 0.951177 0.909918 -0.678124 0.0776471 0.535842 0.295624 -0.490557 0.533967 0.413255 0.294626 1.10118 0.502613 0.878338 0.753154 -0.728589 -1.0287 -0.30037 0.755986 0.0897526 0.850143 -0.659912 0.620019 1.01139 0.152289 -1.16805 -0.0521451 0.707515 0.604788 0.199242 -0.855753 0.0564086 -0.0365969 0.330192 -0.0913758 1.11434 -0.156213 -0.585938 -0.120994 -0.304341 0.762059 0.792193 -0.668454 0.122994 0.646078 0.652507 0.77424 0.898188 -0.991572 0.498421 0.176516 -0.341799 -0.833407 -0.323069 -0.655906 -0.0445241 -0.247388 0.320619 -0.204627 -0.548018 -0.739663 -0.30403 0.47588 0.125063 -0.570847 -0.724313 0.33118 0.624077 0.0465915 0.60503 0.891627 -0.402578 0.565156 -1.06822 1.0494 0.440265 0.773082 0.369893 
0 -0.370946 -0.0973117 -0.771826 -0.201678 0.487838 0.0582672 -0.499578 -0.387004 0.917315 -0.901547 0.38838 -0.795883 -0.241224 -0.77331 0.596349 0.917198 -0.707121 -1.49803 0.554598 0.34594 0.0803154 -0.181846 0.298201 -0.000527032 -0.648319 0.922637 0.148831 0.466977 0.100553 -0.341401 -0.526434 0.699747 0.541235 -0.182574 -0.314783 0.1536 -1.15093 0.165096 0.397854 -0.84378 0.748856 -0.162741 -0.203685 -0.958028 -0.0694881 -1.0269 1.09644 0.0252521 -0.961465 -0.278729 -0.748752 0.650405 0.735629 -0.306176 -0.582417 -1.19425 0.854173 0.203263 0.381135 0.302489 -0.601574 -0.450405 0.0648173 -1.36187 0.186661 0.81175 0.284259 0.53474 0.67636 0.0308887 0.463064 0.0574946 0.527786 -0.658485 0.384504 -0.735275 -0.260193 -0.0502752 0.507389 -0.426215 -1.16047 0.665038 0.461914 1.3603 -0.967225 0.600824 -0.510818 0.973271 -0.115702 -0.649263 0.389465 -0.116485 -0.474103 -1.20073 0.099001 0.516024 -0.99239 -0.564755 0.495066 0.360602 0.101315 -0.392616 -1.06249 -0.395798 -0.207539 0.529117 -0.657268 0.17298 -0.370299 -0.923309 0.461644 -0.609059 1.01682 -0.0797489 -0.26195 -0.654853 -0.194432 -0.73839 -0.96292 0.489734 -0.427737 0.359245 -0.432565 -0.0200629 0.764982 0.641902 0.0250061 0.395631 -0.68867 0.803199 -0.18381 0.510579 -0.633366 0.160181 -0.626151 0.690916 -0.29211 -0.417036 -0.24488 -0.553276 -0.351586 -1.14282 -0.291916 -0.239802 0.658714 0.0457188 0.100399 0.831578 0.333045 -0.0860342 0.0685154 -0.76916 -0.537287 0.593098 
0 1.28786 0.471693 0.57106 0.478212 0.396395 1.20585 -0.985268 0.136652 -0.541586 1.27579 0.0741967 -0.733682 1.17728 -1.24425 -0.329323 -0.22225 0.126626 0.15001 0.462333 1.46311 1.61809 -1.00811 -0.118133 0.333546 -0.692725 -1.36943 -0.616207 0.11951 -0.632482 -0.909189 0.412509 -0.706665 0.537596 0.507869 0.94411 0.286541 0.421105 -0.90383 0.326538 -0.674659 0.755808 -0.10005 -0.457321 0.919109 0.0322022 0.565914 -1.22133 -1.00818 0.155788 0.785366 1.0199 -1.11534 -0.632959 0.350665 0.447321 -0.165829 -0.0196295 -1.37932 0.109407 0.077917 -0.87646 -0.657293 0.513119 0.943253 -0.640291 0.16123 0.320091 -0.64592 1.06565 -0.641841 -0.883869 0.0464334 0.256908 -0.388506 -0.232911 -0.504406 -0.613867 -0.0235479 -0.632512 -0.404016 -0.509902 -0.555908 -0.194123 -0.786059 -0.231814 -0.453723 -0.0890513 -1.19528 0.300042 0.940364 -0.108237 0.515964 -0.739651 0.228704 0.452195 0.731671 -1.10443 -0.763502 0.368527 0.732047 -0.249285 0.640732 0.373507 1.01128 0.154257 0.567268 -1.05458 -0.0795258 -0.0549418 -0.708639 0.931071 -0.624253 -0.0160675 0.113654 0.113565 -0.985635 0.367501 -0.26352 -0.458582 0.903721 -0.875195 1.33271 -0.207853 -0.19636 -0.301115 -0.509816 0.983006 0.382367 -0.503263 0.165934 0.257742 -0.826413 -0.0714904 0.674675 -0.189263 0.800821 0.339686 0.0233095 -0.314032 1.02142 0.711328 -0.389109 -0.920702 0.562012 0.399726 0.223506 0.516832 0.102448 -0.212172 -1.33112 -0.41983 0.398604 -0.839575 0.287371 
0 0.21845 0.810263 -0.855694 -0.80244 0.973209 0.593463 0.359112 -0.373234 -0.633074 -0.521137 1.29216 0.681803 -0.642384 -0.527956 -0.51087 0.554173 -0.671427 0.0966988 0.728571 0.692025 -0.222953 0.0130337 0.20065 0.735482 -0.376165 0.134592 -1.01432 -0.74031 0.341023 0.631669 -0.412878 -0.196968 -0.141335 -0.345565 -0.149157 0.0227265 -0.404366 0.973903 0.45051 -0.157093 -0.293453 -0.354521 -0.0111422 -0.611159 0.640448 0.270626 -0.0557833 -0.849051 -0.5217 -0.486074 0.654719 -0.292683 1.24169 -0.454967 -1.06837 -0.485005 -0.937536 -1.10331 -0.697323 0.383009 1.06573 0.201391 0.668391 -0.54664 -0.843811 -0.488135 1.47548 -0.32626 1.05667 0.089577 0.505278 -0.336591 1.38321 -1.02963 0.730043 0.515913 0.217559 -0.820141 0.910607 0.484512 -0.375017 0.243955 -0.428835 -0.43488 -1.15896 -0.81606 -0.262393 -0.653533 -0.0872718 0.130349 0.815526 -0.326412 -0.324592 0.553785 0.280185 0.0111989 0.757996 -0.126897 0.341116 0.467463 0.374906 -0.0505823 -0.568245 -0.236778 -0.0318467 0.522241 0.039102 -1.15929 0.962517 -0.0319218 -0.888781 0.15954 -0.976352 -0.452045 0.763261 -1.20408 0.428838 -0.566851 -0.479 -0.455702 0.878588 0.381602 -0.352055 -0.392805 0.171826 0.963564 0.435759 -0.50128 -0.436585 -0.452517 -1.1363 -1.10455 0.356379 -0.652167 0.740359 -0.507997 -0.731497 -0.28851 -0.121062 -0.869958 0.566134 -0.250122 -0.255339 0.735354 0.716264 -0.887899 0.757556 -0.487555 -0.321441 -1.04432 -0.322286 -0.352577 -1.18487 0.310657 
0 0.0716166 0.243309 -0.513617 -1.04719 0.725277 0.0526031 -0.763249 0.501565 -0.0500842 -0.790627 0.836276 1.06555 -0.0322976 0.524627 -0.739831 -0.0170983 -0.183874 0.0995568 -0.261756 -0.0936503 0.594578 0.553423 -0.218276 1.08292 -0.707594 -0.39175 -0.310227 -0.107469 0.12825 0.603276 1.09486 -0.689066 0.361428 -0.417298 -0.464593 0.100739 1.66263 -0.148857 -0.349842 -0.160145 0.433877 1.08101 -0.978838 -1.15216 0.937182 0.0981053 -0.647304 -0.0746144 -0.025893 -0.487273 0.847047 -0.960464 -1.46755 -1.04398 0.728103 -0.628547 -0.710525 -0.127227 -0.0744335 0.278511 -0.333733 -0.162049 0.876455 0.540393 0.494076 -0.616276 -0.377538 0.583418 -0.1747 0.021094 0.0692849 -0.475681 0.112757 -0.531898 -0.535645 -0.172963 -0.616536 0.918215 0.868544 -0.0617275 0.646512 0.477309 -0.0820589 0.440455 0.82621 -0.227219 -0.813186 -0.886239 0.408972 0.276527 0.483942 -0.737146 -0.493268 0.907659 0.880146 1.03693 1.2499 -0.727961 0.584854 -0.158198 0.594264 0.44546 0.676473 -0.00500417 -0.647906 -0.978075 1.24797 -0.404609 1.05712 0.457444 0.34005 0.623088 -0.0490943 -0.734891 0.729772 -0.87432 0.387322 0.56121 -0.910827 -0.125987 -0.431149 0.369972 -0.169449 -0.227149 0.133279 -0.244993 -0.612781 -0.234418 0.0921859 0.400685 0.598098 -0.0777517 -0.490891 0.325188 0.947803 0.0245564 0.622927 0.398281 0.358625 0.0907109 0.0971618 -0.110088 -0.292258 0.774489 0.404451 -0.870978 0.604364 -0.661826 0.819313 1.20244 0.00532025 -0.417672 0.66274 -1.04423 
0 -0.377461 0.215813 -0.0725916 0.621767 -1.32862 -0.212913 1.0417 -0.130839 0.711159 0.346897 -0.679552 0.180024 0.406301 0.400072 -0.422689 0.0765203 -0.302591 0.641073 0.313348 0.0966722 -0.70865 0.447815 -0.74193 0.0881439 0.123367 0.196613 -0.469065 0.00295579 -0.675693 -0.00465473 0.97441 -0.0748943 0.440966 0.111141 -0.194367 1.07991 0.460343 -0.0491391 0.264518 0.699564 0.899904 0.826453 -0.310528 -0.163815 1.40214 0.433239 0.621518 0.0859414 -0.68643 0.160557 -1.77811 0.0121853 -0.492848 0.475813 -0.671478 0.844235 0.393055 0.223139 -0.354442 0.971113 -0.786131 -0.234608 -0.0238063 -0.850779 0.588372 0.792918 -0.999768 0.823123 -0.930401 -0.422272 0.977787 -1.21012 -0.227009 1.37201 -0.399446 -0.697944 -0.233254 -0.349965 0.990051 -0.00294463 0.482668 0.813247 -0.758234 0.99994 -0.622647 -0.736532 0.349512 -0.434323 0.669834 0.991199 -0.812166 -1.30359 -0.853095 -0.0774952 -0.822927 -0.44191 0.102611 -0.692752 1.18874 0.147044 0.852104 0.0828197 -0.316283 -0.793768 -0.0748791 -0.95924 0.591093 0.69134 -0.915249 -0.787572 -0.0433653 0.697109 0.943127 0.133214 0.279808 -0.297324 0.0885703 -0.70826 -0.582464 0.250633 -0.664258 -0.282173 0.195659 -0.300958 0.900067 0.205821 -0.0580213 -0.758045 -1.12237 -0.260503 0.706728 0.652263 -0.843317 -0.241404 1.23161 0.296761 -0.234712 -0.35528 -0.142421 0.803588 0.49947 0.428434 0.279594 0.528561 -0.531612 -0.544585 0.0866081 -0.583995 0.471387 0.830794 0.439885 0.838002 -0.580848 -0.233112 
0 -0.850853 -0.806553 0.167691 -0.4516 -0.968173 0.476476 -0.610773 0.565069 0.737046 -0.0391025 1.01883 0.112377 -1.16776 -0.330083 -1.03174 0.783603 0.221288 0.862323 -0.241226 -0.898222 -0.296164 0.101932 0.406767 -0.0336434 -0.333519 0.549323 -0.62174 -0.922186 1.14791 -0.541116 -0.232987 0.799792 0.349576 0.747329 -1.00455 0.544844 0.295326 -0.845086 0.728891 0.340885 0.652852 -0.0799344 -0.92526 0.832611 0.86083 -0.992641 0.108942 -0.188135 -0.607427 -0.871564 0.42743 0.148353 0.449861 -0.365424 0.292243 -0.506692 0.505997 1.1283 -1.15073 0.443906 -0.157203 -0.443756 0.165518 0.757496 -0.967312 0.155101 0.913171 0.638939 -0.377543 -0.256935 -0.233757 0.590062 -0.552651 -0.12899 0.274186 0.942276 0.501633 -0.24024 -0.4985 0.76175 -0.0362202 0.756393 -1.15296 -0.606532 -0.753598 0.685205 -0.416723 -0.469133 0.420491 -0.264739 0.899868 -0.366634 0.487968 -0.270452 -0.908986 0.858333 -0.810873 0.787981 0.596839 -0.906458 -0.311382 0.000199401 -0.836985 -0.50154 -0.179038 0.778258 -0.345165 -1.05303 -0.691111 -0.079982 0.651042 -0.593923 -0.852832 0.776436 0.376667 -0.542146 0.134066 1.09891 -0.652949 -0.550785 -0.599453 -0.805607 -0.105687 -0.961971 -0.228397 0.317841 1.03271 0.539081 -0.48482 0.659707 0.207541 0.295756 -0.0664311 0.223602 0.904347 0.00862058 -0.300111 0.939345 -0.651832 0.19558 -0.163362 -0.572376 -0.284572 -0.575591 0.154164 0.304675 0.0343718 -0.466653 -0.284186 0.739453 0.452134 -0.182842 -0.583422 -0.692535 
0 -0.68812 0.314103 0.241596 0.813116 -1.13098 -0.460503 0.117307 0.323636 -0.536714 -0.365492 0.356824 -0.123803 0.730983 0.586643 0.323469 0.376253 0.716848 0.622985 -0.0398887 -0.563486 -0.229204 -0.0544739 0.463732 0.912262 0.772258 0.389167 -0.154326 0.606738 0.622559 0.175491 -0.376812 -0.184869 -0.78202 -1.28498 -0.979861 -0.0599292 0.522526 0.740994 -1.00156 0.237579 -0.742984 0.706895 -0.732502 0.911729 -0.342906 1.37821 -0.0434373 -0.592023 1.07872 -0.968682 -0.0625021 -0.350574 -0.399902 -0.686906 0.0661435 -0.251363 -0.671179 0.974545 0.383473 0.764978 0.277269 -0.72374 -0.443028 0.957398 -0.328004 0.175061 0.315463 0.433974 -0.660093 -0.0443542 -0.18138 -0.373784 -0.269402 0.414526 -0.472091 0.457052 -0.330755 0.863008 0.780521 -0.526953 0.267629 -0.164403 0.611989 1.09406 0.0216558 -0.374313 -0.568694 0.408626 -0.813918 0.831106 0.191781 0.587371 -1.20536 0.83182 0.369433 -0.284617 -0.607445 -1.0259 0.603066 0.472798 0.192067 -0.512827 0.792326 -1.08017 0.56541 -0.943069 0.6648 -0.0597765 1.23943 0.321962 0.531801 -0.0229358 -0.539236 0.155303 -0.60311 0.830844 0.86589 0.354537 0.0272652 -0.652342 -0.336823 -0.169157 0.701374 -0.341064 -0.752403 0.893942 0.25416 -0.212152 0.953668 -0.333789 -1.37212 -0.207297 1.57585 1.04303 -0.198742 0.696057 -0.747231 -0.783848 -0.410623 0.528583 -0.746973 -0.601111 -1.36313 0.00603703 0.892923 0.0327521 -0.635009 0.127868 0.7793 0.889586 -0.160901 -0.710352 0.214747 0.582774 
0 0.653765 -1.05325 -0.86026 -0.425765 0.446313 0.221321 -0.541468 -1.04905 0.334188 0.170953 0.455672 -0.160018 -0.236783 0.554637 -0.447002 -0.573629 -0.866254 -0.0811023 0.110762 0.921596 -0.606646 0.484675 0.353229 0.478231 0.293883 -0.230321 -0.288301 0.828149 -0.86687 0.744167 -0.141154 -0.765334 0.762089 0.373907 -0.370282 0.132372 -0.511468 0.267509 0.448694 0.752329 0.952208 -0.454537 -0.341413 -0.232844 -0.225381 0.950352 0.401871 -0.27411 0.123519 0.78099 -0.341141 0.986595 -0.0934814 0.611901 0.746439 -0.872189 0.122051 -0.485675 -0.96322 -0.00591833 0.966825 -0.265823 0.231005 0.959541 -0.731714 0.89775 -0.425174 -0.0650179 -0.356311 0.561312 -0.0185548 0.114877 -0.712371 0.889269 0.744044 -0.266469 0.21176 0.203424 0.329189 -0.875069 -0.435127 0.529937 -0.887095 0.182025 1.193 0.822978 0.260665 -0.488326 1.22527 0.169006 -0.623559 0.274419 -0.82276 0.707586 0.283606 -0.244572 0.159294 0.651971 0.596692 -0.418976 0.572983 0.516878 0.39875 0.578459 0.154827 0.214034 -0.823413 0.901467 0.728931 -0.788676 -0.623489 -1.12352 -0.737483 -0.601757 0.0699889 -0.462272 0.685784 -0.445971 -0.18769 0.635516 -0.900464 0.0121332 0.395992 -0.502321 -0.240856 0.00902048 0.0398749 0.279329 -0.732311 -0.526877 0.817832 0.100354 -1.04991 0.286044 -0.364056 0.276245 -0.367338 0.349101 0.393764 -0.632551 0.223719 0.0422793 -0.590681 0.547689 0.773973 0.693688 0.278144 0.65967 -0.389684 -0.262329 0.76091 -0.128448 0.574207 -0.145476 
0 0.718158 -0.275885 -0.76447 0.211951 0.0184039 -0.251266 -0.149004 -0.248533 -0.331472 0.598392 -0.060404 0.998758 -0.612758 -0.316864 0.65132 -0.30533 -0.290432 -0.627646 0.350375 0.719719 0.694699 -0.317322 0.574775 0.357815 0.156326 0.590466 0.0840537 0.839849 0.879715 1.07106 -0.512195 -0.0872442 -0.255626 -0.334777 0.863064 -0.361693 -0.107948 -0.782404 0.581564 0.79136 -0.526774 0.0452565 0.157436 -0.129336 0.977841 -0.422729 -0.0236729 -0.829297 -0.465731 -1.42447 0.447032 -0.173294 -0.165029 -0.128794 -0.192768 0.889433 -0.140893 0.605164 0.701171 -1.06178 0.524677 -1.03419 -0.195419 -0.691916 -0.0924889 -0.63737 -0.231945 -0.751069 -0.167147 -0.164974 -0.421321 0.317764 0.360392 -0.915971 -0.720647 0.190541 0.381279 0.437753 0.0744386 -0.835097 0.320546 0.25013 0.219765 0.554374 -0.631058 0.921057 1.04574 0.304552 0.351388 0.399121 -0.5614 0.0392397 0.423893 -0.884417 0.352186 -0.445305 -0.455715 0.0923257 -0.217039 0.406802 0.734575 0.0408276 0.0494656 0.347702 0.231861 0.165317 -0.259445 -0.842375 -0.801933 0.748405 -0.737425 0.149185 -0.358611 0.516747 0.679794 0.371862 0.873744 0.196902 -0.687588 -0.234245 -0.683464 0.233016 -0.868603 0.677696 0.846778 0.081541 -0.697548 -0.700169 -0.718857 -0.298564 -0.444329 -0.397476 0.926255 -0.534118 0.164888 0.0964967 -0.98218 1.12648 0.360292 -0.824171 0.386315 0.9602 0.884818 -0.530155 0.529563 0.318766 1.03268 -0.478072 -1.56836 0.618973 0.664837 -0.304265 0.864705 0.569847 
0 0.373228 0.596357 -0.20787 0.455281 -0.550679 -0.0113912 0.455704 -0.146731 0.397975 0.164945 -0.845984 -0.508523 0.0173308 -0.98114 0.858009 0.0844741 1.01949 0.00072623 -0.494557 -0.545351 -0.562818 -0.341712 0.491149 -0.418073 -0.213242 0.470394 -0.536851 0.0671115 0.202926 -0.667698 0.698624 -0.729273 0.356303 -0.14512 0.548501 -0.5579 0.47746 0.429063 -0.208664 -0.020319 -0.806966 -0.517299 0.00502928 -0.080459 0.0706348 0.0477459 -0.394514 -0.353309 -0.285542 -0.0682926 -0.00573037 -0.748315 0.353579 -0.780855 0.177308 -0.222268 0.836519 0.629335 0.480673 -0.0850959 0.33508 0.718546 0.524163 0.0678929 -0.362024 0.673153 0.0612727 -0.920387 0.517315 0.542652 0.186725 0.217675 0.0524453 -0.427799 -0.224774 0.553654 0.365085 -0.134704 -0.267038 0.408555 0.991333 0.261572 -0.820794 0.462263 0.286054 0.0541575 -0.654673 0.129476 -0.631873 -0.576059 -0.68565 -0.855571 0.467794 0.552586 0.326204 -0.549044 0.307913 -0.28526 -0.59968 -0.036234 0.00365183 0.472013 0.577499 -0.0393649 -0.750778 -0.629045 0.412446 0.431623 -0.169137 0.563804 0.639306 0.180352 -0.026432 0.987053 -0.806516 0.664076 0.15035 -0.563594 0.00346796 0.455644 -0.404609 0.466125 -0.825128 -0.380774 0.0308158 0.707798 -0.0638657 0.256376 -0.644686 0.435198 0.540737 0.017553 -0.0962901 0.478965 -0.34228 -0.313354 0.679181 -0.709831 -0.25813 -0.801787 0.384466 -0.334511 -0.195573 -0.943886 0.611213 0.201856 0.82777 0.342527 0.504579 -0.315752 0.044784 -0.260265 -0.355082 0.277057 
0 0.621747 -0.0405705 0.0318406 0.0154297 -0.096993 -0.0445288 -0.51899 -0.332862 0.722186 0.364746 0.0437865 -0.321518 0.147247 -0.253201 -0.121946 0.211176 -0.530257 0.417817 0.1826 -0.334088 -0.165188 0.078587 -0.123212 -0.552969 0.643451 0.264658 -0.0305445 -0.43572 -0.354115 -0.0346833 0.1029 0.881826 0.459375 -0.442372 0.23613 -0.422073 -0.244616 -0.0290306 0.355221 0.827156 -0.110303 0.0226143 -0.307528 -0.497234 -0.210977 0.359121 0.355348 -0.232132 -0.451711 -0.157345 0.450508 -0.492267 -0.203495 -0.39165 -0.226979 0.476168 -0.0650878 0.620926 0.33406 -0.276064 -0.267345 -0.198397 -0.314654 -0.596419 0.212317 0.139453 0.0865431 0.757975 0.0051816 0.0709937 0.207529 0.147956 0.418039 0.429363 -0.063714 0.222885 0.568222 -0.0338091 -0.494528 -0.104384 0.179629 -0.194868 -0.442949 -0.107617 0.0985044 0.0199423 -0.249951 0.343018 -0.224592 -0.604332 -0.279638 0.0561253 0.156589 0.684972 0.749676 -0.250662 0.0303768 0.0698522 -0.544102 0.106426 0.349995 0.626415 -0.12661 0.190538 0.295461 0.4766 0.0190038 0.0857482 -0.207131 0.433821 0.508722 0.111748 0.531934 0.623123 -0.0144265 0.344784 0.0705326 -0.336519 0.0717263 0.338784 -0.942154 0.526256 -0.170959 0.0285581 0.0271622 0.353145 0.156521 0.247483 0.394061 0.45491 0.168954 -0.0244452 0.37774 0.436725 -0.559444 -0.0848453 0.485633 -0.13552 -0.686463 -0.658031 -0.647813 -0.0259659 -0.546553 0.530987 0.437509 0.287051 0.49774 -0.694117 0.106177 -0.173218 0.369818 -0.0590053 0.233124 0.0286038 
0 0.0558088 0.028919 0.0930092 -0.15567 -0.161657 -0.106363 0.16319 0.199698 -0.189213 0.0675124 -0.00250003 -0.255271 0.120089 -0.298288 -0.352689 -0.272016 -0.325837 0.320334 -0.0373248 0.0500155 0.0851819 -0.22287 -0.171758 0.0802308 -0.0958318 0.0531952 -0.224311 0.0920785 -0.00979796 0.0556209 0.335124 0.191965 -0.354184 0.00801186 -0.120911 -0.217776 -0.132746 0.747934 -0.237839 0.110429 0.128897 -0.0325877 0.0189618 0.451335 0.122898 -0.0841247 -0.413404 0.558331 0.0311804 -0.00267966 0.108734 -0.172046 0.247072 -0.256861 -0.110422 0.0658573 0.262866 0.103283 0.00386909 -0.263579 0.104655 0.349773 0.594915 -0.00417022 -0.23541 0.438978 0.0198834 0.535768 0.211833 0.249041 0.0541285 -0.414412 -0.173707 0.193309 -0.157101 -0.252092 0.169395 -0.0732075 -0.243014 -0.0687982 0.0910338 -0.0872688 0.238382 -0.117004 0.454351 0.18575 -0.00339665 0.145288 -0.0644031 0.249611 0.0458842 0.0493215 0.242093 0.0436008 0.468088 -0.317782 -0.0301548 0.158002 -0.0295455 -0.0598221 0.0240807 -0.208469 -0.310668 0.0241833 -0.234543 -0.00234942 0.239636 0.460445 0.0749843 -0.00786965 -0.145205 -0.248036 -0.427798 -0.427758 -0.0385836 -0.127452 -0.0352564 -0.17025 0.337905 0.0950683 -0.51632 0.0836596 -0.908981 -0.973327 -0.165328 -0.235311 -0.0445127 0.0208076 0.256622 -0.465019 0.243872 -0.075556 -0.112636 -0.00337283 -0.168471 0.0273176 -0.139665 -0.203675 0.272895 0.958836 0.311126 -0.357157 -0.0135536 0.330282 -0.000433909 0.725645 0.283524 -0.301912 0.0815229 -0.159192 0.413211 -0.102326 -0.394262 0.228365 
0 -0.615701 0.715936 0.0408398 -0.00803813 0.103811 0.650679 -0.325393 0.691856 -0.490227 -0.0803574 -0.528016 0.619996 0.418686 0.11172 0.119334 0.493107 0.211999 0.112611 0.871088 0.0252381 0.513704 -0.189517 -0.53819 -0.433923 -0.774961 0.0894364 0.524321 0.548423 0.75683 0.335539 -0.837961 -0.848298 0.0780708 0.641649 0.0321446 -0.284861 0.585269 0.175797 -0.273706 -0.51561 -0.523669 0.570185 -0.070452 -0.375445 -0.0598521 0.219197 0.478607 -1.08244 -0.0884262 0.442035 -0.287184 -0.194904 0.042781 0.467727 0.0217339 0.145888 -0.718208 -0.0252417 -0.43381 -0.049381 -0.17729 -0.0335187 0.0335115 0.607047 0.227029 -0.674638 -0.170428 -0.233744 0.0908355 0.145878 0.294599 -0.921607 0.236457 0.587586 -0.412865 0.324039 0.259413 0.697019 -0.350147 0.733338 0.203956 0.00356327 -0.957436 0.0623685 -0.381543 0.0478248 -0.884659 0.513602 -0.0111177 -0.167065 -0.474886 0.581594 0.519939 0.0904254 0.482154 0.209793 0.234538 -0.0813091 0.42639 0.127297 -0.357007 0.129015 -0.0814576 -0.0306672 0.0191559 0.529599 0.300687 -0.051056 0.483011 -0.472162 -0.72275 -0.0735242 0.731638 -0.284224 0.364598 -0.381923 0.285925 0.313765 0.453102 0.282701 -0.620471 -0.496451 0.177536 -0.737583 0.589329 0.172149 0.124085 0.300506 0.378845 -0.374699 -0.355143 0.282131 -0.799195 -0.625875 -0.635261 -0.0706647 -0.0116713 0.702499 0.087655 0.22672 -0.206629 0.47481 -0.837639 0.16175 0.355646 0.747662 0.1765 0.168046 0.521255 -0.117168 0.0492317 0.433747 -0.052714 0.337724 
0 -0.429129 0.219599 0.41851 0.628102 -0.475087 -0.7997 -0.482727 0.776453 -0.635052 -0.132065 -0.280937 0.202494 0.34834 -0.249429 -0.349696 0.18058 -0.0463558 0.425976 0.598096 0.267866 0.614326 -0.0395991 -0.531156 -0.346819 -0.714883 0.158857 0.679697 0.754595 0.168337 -0.0413915 -0.698119 0.267633 -0.301877 0.426744 -0.122107 -0.420491 0.217304 0.249583 -0.387787 0.483793 0.431626 0.228692 -0.337553 -0.418786 -0.0806144 -0.0385978 -0.487358 -0.879143 -0.153844 0.299799 0.112118 -0.324257 -0.403903 0.582129 0.122042 -0.0902879 -0.510448 -0.050864 -0.639909 0.0384961 0.452001 -0.326766 -0.135116 -0.570751 0.410462 0.52906 -0.0770228 0.248307 -0.14068 -0.0593271 0.0637193 -0.526825 0.03236 0.250746 0.00168009 0.0691238 0.132549 0.490824 -0.187782 0.395876 -0.0110572 0.273418 -0.446474 -0.121642 -0.456823 0.275634 -0.0528808 -0.0787437 -0.363004 0.0722426 -0.474574 -0.313738 0.634147 0.12338 -0.525056 0.253254 0.135573 -0.444007 -0.250621 0.437844 0.0489663 0.494842 -0.451919 -0.0913562 -0.240524 0.575232 0.367931 -0.114837 0.268357 -0.218048 0.507297 -0.585541 0.288453 0.467666 0.234082 -0.14626 -0.0260001 -0.182177 -0.528516 0.187306 -0.888841 -0.29275 0.162002 -0.912631 0.44045 0.30363 0.461 0.0238426 0.69244 -0.257367 -0.308265 0.220208 0.346273 -0.147011 -0.476606 -0.188637 -0.325854 0.423112 -0.39007 0.812106 -0.334651 0.680487 -0.699602 0.213393 0.209585 0.33086 -0.0605694 -0.25851 0.517666 -0.257625 0.156317 0.378183 0.406312 -0.15585 
0 0.0625846 -0.0926944 -0.123212 -0.448763 -0.192507 -0.256276 -0.137972 0.185671 -1.02262 0.369756 -0.13998 0.145464 -0.0613179 0.162644 0.00767276 -0.0225945 0.0205661 -0.0285135 0.234561 -0.099742 -0.187029 -0.504181 -0.0722276 -0.161264 -0.924131 -0.132713 -0.268783 0.063745 -0.0227851 0.127304 -0.176962 -0.135188 0.119325 0.330471 -0.115349 -0.219315 -0.0818563 -0.415053 -0.248188 -0.502915 -0.802717 0.155314 -0.0233438 -0.188751 -0.0581908 -0.0723421 0.183985 -0.662788 -0.241078 -0.0480257 -0.231335 0.14147 0.0249498 0.0567915 -0.187652 -0.189554 -0.421208 -0.114307 -0.22371 -0.0482294 -0.0739492 -0.0622409 -0.934372 -0.456241 -0.635181 0.31176 0.0914922 -0.303433 0.170012 0.265464 0.0504248 0.368854 0.0207529 0.10683 -0.351767 -0.0747715 0.367901 0.131327 -0.17262 0.180093 0.272517 0.124352 -0.339453 0.022021 0.508761 0.0551764 -0.471685 -0.324721 -0.0295847 -0.089243 0.0877888 -0.241843 -0.160317 0.0487266 -0.140968 -0.152245 0.132212 0.425326 0.0927257 0.157521 0.04333 -0.052007 0.126025 -0.112116 -0.287464 0.280941 -0.091415 0.26638 0.132238 -0.292489 -0.0190917 -0.00411773 0.478111 0.248758 -0.154332 -0.0565737 0.11515 0.224389 0.560526 0.102573 -0.37108 -0.0822806 0.259748 0.325044 0.136126 0.621152 -0.167321 0.0217808 0.225036 -0.482625 -0.397648 -0.0545864 -0.205099 -0.288714 -0.0194007 0.111613 0.146801 0.0520296 -0.176895 -0.0683918 0.436451 0.0968914 0.287126 0.177018 0.0727683 0.715037 -0.0135357 -0.0745533 -0.0552407 -0.115589 0.138454 0.0178838 0.237186 0.121707 
0 0.716407 -0.415017 -0.648158 -0.383317 -0.798489 -0.252665 0.522472 -0.0886502 0.14064 0.360762 0.660146 1.23806 0.345363 0.223023 -0.645529 -0.757499 -0.360514 0.673854 0.557702 -0.425878 -0.65737 0.64978 0.478909 0.058321 0.942748 -0.642558 -0.589056 0.00918824 0.650434 0.118276 -0.133169 0.719137 -0.93602 0.889699 -0.759856 -0.728054 0.0673987 0.561359 0.126097 0.350711 0.265855 -0.166975 0.42598 -0.300088 0.441592 0.482515 0.0274033 -0.263209 0.43167 -0.0351779 0.203105 0.671389 -0.399515 0.0236425 -0.538821 -0.319101 0.752643 0.326101 0.599855 0.39289 -0.769302 -0.208775 -0.0687661 -0.602451 -0.624655 0.194484 -0.601476 -0.197891 -0.338226 0.765866 -0.109554 -0.888032 -0.836077 0.851413 0.115543 0.790354 0.482884 0.854719 -0.508845 -0.544668 -0.312653 0.906711 -0.828187 0.0280563 0.06272 -0.11756 0.93692 -0.492312 0.327359 0.470026 0.762273 0.834497 0.493244 -0.476628 -0.744677 -0.652222 0.798241 -0.0678652 0.102712 -0.417579 -0.633092 0.300679 -0.180008 -0.442116 0.354159 0.40043 -0.527449 -0.258692 0.483626 0.094445 0.344326 -0.927935 -0.226404 0.559775 0.65708 0.867818 -0.718724 0.108001 -0.854544 0.692408 -0.405262 1.05556 0.516453 -0.530611 -0.755128 0.703798 0.0915213 -1.01595 -0.436148 0.745671 -0.20395 -0.149609 0.188177 -0.136817 0.494245 -1.11286 -0.0247428 1.07257 0.167152 -0.70383 0.00139769 -0.524322 -0.615957 0.546119 -1.0361 0.773299 0.392231 -0.636521 0.146213 0.865882 1.22519 0.441974 0.184102 0.258353 
0 0.56951 -0.26771 -0.17573 0.832861 0.639065 -0.647457 -0.434645 -0.308656 0.688455 0.532182 -0.819828 -0.250072 0.13166 -0.59589 0.0176974 0.0350585 0.0109851 0.962789 0.507118 0.0108746 1.1163 0.290284 -1.09149 -0.409604 -0.692602 0.115984 -0.813562 1.36149 -0.293604 0.493974 -0.453048 -0.64609 -0.316814 0.450965 -0.526405 -0.946279 0.626564 0.155983 0.158275 0.022598 -0.0915669 0.487486 -0.0667037 0.792557 0.311813 -0.411063 -0.390618 -0.757877 -0.30964 -0.398751 -0.108235 -0.890942 0.554453 -0.0929662 -0.66857 0.554039 0.493781 -0.280483 0.698981 0.794774 -0.389472 1.35723 -0.283947 -0.0455644 -0.219382 0.435239 -0.354629 -0.988571 -0.374761 -0.228277 0.646332 0.159861 0.802827 -0.190301 0.122799 0.655389 -0.471442 -0.645969 1.54358 0.349134 -0.477466 -0.125436 -0.874248 -0.549402 -0.594515 -0.221157 -1.51049 -0.00742288 0.409774 0.892369 -0.449574 0.763867 1.31458 0.894315 -0.928285 -1.11233 -0.283077 0.481627 -0.533858 0.665865 -0.19868 0.98982 -0.3772 1.21437 -0.221142 -0.943513 -0.0767363 0.77766 -1.22803 0.502219 0.550202 -0.714605 -0.826837 0.812809 -0.177269 -0.191292 -0.742082 -0.185758 0.663234 0.309647 -0.342701 -0.507525 0.19537 -0.575316 -0.937202 0.388686 -0.202056 0.535641 0.888399 0.313307 -0.0575583 0.231711 0.28484 0.793793 0.317915 -1.18384 0.882965 0.255437 0.868148 -0.792192 -0.895483 0.50364 -0.46504 -0.737671 0.0594085 0.630938 -0.960455 0.0297851 -0.385562 0.400166 -0.427377 -0.0280628 -0.958495 -0.731968 
0 -0.491945 0.959871 0.329647 0.796369 -0.20001 -0.308185 -0.657584 0.156666 0.733459 -0.640291 0.0593073 0.460038 -0.507917 0.317683 0.612532 -0.48791 0.198904 0.502524 0.269813 0.701237 -0.393176 0.123 -1.07537 -0.213901 0.982198 0.705621 -0.687987 0.142405 -1.20434 -0.117858 -0.441285 -0.166523 -0.752353 -0.204061 -0.786618 1.17079 -0.0303646 -0.34369 -0.174073 0.656377 0.642544 0.623621 0.357828 -0.568325 -0.015079 -0.0321573 -0.676351 -0.169619 -0.521438 -0.166469 -0.325903 -0.304965 0.926869 -0.549008 0.448242 0.692019 -0.382159 -0.837425 -0.747894 -0.528822 0.0102834 0.840279 0.471857 0.622539 -0.215812 1.06403 0.186598 -0.768132 -0.294787 -1.25045 0.535661 -0.227985 0.557672 -0.609489 -0.228423 -0.416834 0.753586 0.552386 0.550251 0.73606 -0.586488 1.32138 -0.822825 1.11409 -0.0653865 1.08392 0.120293 -0.184759 -0.823681 -0.448517 -1.17715 -0.430215 0.535649 0.211462 -0.523797 -0.970488 0.686965 -0.336206 -0.344492 -0.263932 -0.38371 0.589908 0.257528 -0.263647 -0.173665 -0.877485 0.530485 -0.467717 0.932511 -0.174076 -0.76503 -1.01188 0.55 -0.492563 0.598654 0.904738 -0.736384 0.312795 -0.0387791 -0.246992 0.600585 -0.486118 0.24166 0.167278 -0.269554 0.643813 -0.123534 1.33826 -0.128218 0.844357 -0.540769 0.673811 0.47286 0.384716 -0.0146165 -0.579354 0.432414 0.249976 -0.488706 1.14535 -0.21559 0.115155 0.809512 0.904845 -0.73029 0.835922 0.942813 0.50873 0.424023 -0.505448 0.327928 -0.109584 -0.136473 -0.265051 
0 0.63108 -0.00516349 0.392253 0.253443 0.343106 0.92419 0.865011 -0.818016 0.103012 0.999078 -0.160297 0.649913 0.913663 -0.290515 -0.896382 0.319142 0.58397 -0.385716 0.213407 1.05057 0.316344 0.623843 -0.00761814 0.476252 -0.371414 0.411469 -0.398364 -0.0905973 -0.476392 -0.676593 0.393644 -1.07368 -0.329579 -0.361741 0.250651 0.411004 -0.131515 0.0529097 1.04044 0.972086 0.170883 -0.362496 0.31038 -0.0508857 0.116232 0.143278 -0.831949 0.529165 0.000485564 0.609671 -0.546414 0.894307 -0.482894 -0.447446 0.651239 0.269598 0.578135 -0.0097106 -0.330257 -0.737005 -0.220413 -0.825994 -0.517932 -0.0755816 0.436325 -0.834749 -0.45019 0.924003 0.455532 0.436385 0.384455 -0.420361 -0.238913 -0.167024 0.236348 -0.871891 -0.122708 -0.0870294 0.707411 -0.443963 -0.375656 -0.571614 -0.917629 0.714155 -0.321435 0.573723 -0.131285 -1.00118 0.712299 0.656075 -0.219813 -1.07826 0.758567 -0.159764 0.291557 0.254192 0.112974 0.282048 -0.0504675 -0.294877 -0.295414 -0.641102 0.664663 0.426999 0.468528 0.0233317 0.29061 0.662198 1.20766 -0.0829047 0.918346 -0.470154 0.257044 -0.468077 -0.770914 -0.857659 1.02801 0.0816284 -0.722975 0.538639 -0.371041 0.392469 0.648845 -0.527605 -0.55793 -0.119154 0.255792 0.812154 0.1012 -0.688654 -0.925588 -0.720762 -0.407145 0.307243 0.705909 -0.684487 0.453121 0.251337 -0.766955 0.824838 -0.4929 -1.17672 -0.778863 0.768374 -0.297984 -0.174709 0.733831 -1.10856 0.716358 -1.16534 -1.09003 -0.258435 0.0191241 0.382052 
0 0.315266 -0.636329 -0.491002 -0.300949 0.886912 0.0970989 -0.292518 -0.893205 -0.693843 -0.825162 1.01212 -0.508626 -1.03256 0.300238 -0.337223 0.823915 0.856449 -0.368785 -0.426556 0.297451 -0.360536 0.553715 0.133104 0.368601 0.131146 0.260521 0.305913 0.451849 -0.782305 0.39634 -0.452932 0.320576 0.416824 0.384931 -0.836525 0.309936 -0.635167 -0.210318 0.342717 -0.512953 -0.169217 0.270995 0.386156 -0.0396593 -0.11692 0.683821 -0.190496 -0.623572 -0.561847 0.257646 0.722761 0.634065 -0.429837 0.0684479 0.108663 0.486487 -0.534543 -0.295018 0.130172 -0.453399 0.636657 0.97059 -0.993201 0.10714 0.272414 -0.886375 -0.660654 0.7116 -0.0722519 1.09448 -0.335706 0.638792 0.117081 0.520451 -0.463513 0.587598 0.533064 0.246367 -0.792069 -0.924065 -0.35948 0.904313 0.917133 0.144858 -0.093992 -0.0858227 -0.146241 0.301472 0.529958 0.906713 0.645551 0.101311 0.662347 0.745983 -0.788366 0.235831 0.660774 -0.420354 -0.233994 -0.574529 -0.451275 0.228649 -0.898961 0.0877573 -0.0801334 -0.129854 0.202473 -0.668949 -1.11812 0.104999 -0.488984 -0.217247 0.23471 -0.718238 0.897375 -0.859784 0.00667831 -0.4342 0.231483 -0.283763 -0.630544 0.0201379 0.664585 -0.707557 -0.511889 0.704222 0.542866 -0.761643 -0.565358 -0.675844 -0.505312 -0.2333 0.626922 -0.40588 -0.762542 -0.5035 0.423496 0.381108 -0.0889335 0.419896 -0.272554 0.360564 -0.96847 0.902731 0.364309 0.752015 -0.621728 -0.264915 -0.970576 0.556068 0.315463 -0.495669 -0.86888 0.185876 
0 -0.304963 -0.310676 -0.522473 -0.57387 0.390069 -0.17038 0.306535 -1.39588 -0.697624 -0.964566 -0.662112 -0.0980707 -0.150401 0.602559 0.857918 -0.437788 -0.769433 -0.124487 -0.342422 -0.17904 -0.861148 -0.456983 -0.528529 -0.433068 -0.234765 0.878201 -0.012175 0.838905 1.24345 -0.201213 -1.12772 -0.384187 -0.369191 -0.158286 -0.0130902 1.08248 -0.0981779 -0.520311 -0.903404 0.509707 -0.42352 -1.15405 1.01149 0.792665 -0.443113 0.550441 -0.132952 -0.405775 -0.814278 0.436857 0.163254 -0.818081 -0.667027 0.554814 0.557805 -0.127171 0.784999 -1.1623 -0.857565 0.75373 0.739025 -0.128421 -0.922028 -0.891104 0.269629 0.301156 0.0466602 -0.83255 0.261419 0.431183 0.23781 -0.480106 -1.03666 0.443452 -0.583789 -0.466577 -0.5455 -0.159255 0.0884542 0.0714633 -0.647182 0.272389 0.44603 0.236857 -0.481387 0.837827 -1.2266 0.759941 -0.393037 0.0820498 0.630784 -0.483654 0.508826 1.17341 -0.900739 -0.703562 0.225994 -0.611166 -0.824933 -0.717938 -0.0557004 0.727834 -0.0393916 -0.0705508 -0.114831 0.437428 -0.190526 0.958925 -0.335386 -0.44399 -0.466558 0.0727017 -0.333756 0.75559 -0.156468 0.278018 -0.893527 -0.229712 0.295581 0.0205015 0.139621 0.265022 0.288102 -0.621369 0.262195 1.18601 0.188905 -0.254399 -0.0886459 0.0934516 0.262154 -0.727969 -0.444441 -0.56271 0.19776 0.975539 0.214434 -0.963564 0.424347 0.846813 -0.782799 0.219691 -0.26414 0.708049 -0.345299 0.0301891 -0.295856 0.1076 0.521676 -1.00699 -0.9545 -0.158226 -0.679992 0.24003 
0 -0.499494 0.452614 0.81399 -0.111762 0.181647 -0.752458 -0.0665966 1.37952 0.331787 -0.54139 -0.498366 -0.256794 0.705048 0.175955 0.373381 0.709274 0.853271 0.113204 0.170262 0.509031 -0.752975 0.803225 -0.640816 0.311087 0.115836 -0.609183 1.31998 0.92385 0.49985 0.973131 -0.0884941 -0.282172 0.0318832 -0.425217 0.378775 -0.477906 0.782663 -0.966488 -0.505069 -0.800407 -0.208379 0.540569 -0.0844525 -0.0225044 -0.053498 -0.507306 -0.520942 -0.696589 -1.15906 -0.804263 0.388309 -0.128646 -0.871395 -0.337605 -1.13512 0.597245 0.351745 -0.514955 -0.33195 0.375479 0.321882 -1.14387 0.461652 -0.312689 -0.103733 0.145256 0.0161503 1.05457 0.502638 0.696971 -0.138405 -0.774866 0.19961 0.154759 0.0620852 1.19023 0.95966 0.252151 0.877396 1.11592 -0.756091 0.906266 -0.99613 -0.380073 -0.0623456 -0.727984 -0.719387 0.289766 -0.756763 0.610919 0.0358523 -1.28823 0.130536 -0.579465 -0.942049 -0.220659 0.815606 1.40222 -0.471061 0.20804 0.49433 -0.436302 -0.370019 -0.857025 -0.814523 0.422619 -0.346205 -1.09408 -0.473843 -0.897045 1.05382 0.0510224 0.93409 -0.601963 0.911792 -0.516492 -0.0528257 -0.0362565 -0.869868 0.655121 0.304205 -0.053828 0.284742 0.135116 1.20186 -1.28813 1.19252 -0.063327 -0.238677 -0.336237 1.2519 0.834112 -0.108715 -0.289004 -0.352511 0.656484 -0.209368 -0.114212 0.747362 0.492535 0.260991 -0.0789668 -0.544849 -0.605762 0.703927 -0.971126 1.17437 -0.320545 1.10195 0.477666 0.942161 -0.085164 -0.104947 -0.339681 
0 -0.983511 0.180773 -0.52409 0.428911 0.308956 -0.366706 0.13549 -0.026972 0.889934 -0.245404 0.587937 0.328231 -0.586785 -0.956028 -0.32614 -1.06513 0.641173 -0.399612 -0.197498 -0.600293 1.04254 -0.644269 1.15363 -0.288986 -0.522915 0.638947 -0.858034 0.856045 -0.568886 0.0440838 -1.36531 -0.784756 -0.542264 -1.19521 0.677114 1.09548 -0.0455707 0.017097 0.269189 -0.520799 0.368322 -0.718452 0.927813 -1.42655 0.107229 -0.0453634 -0.558477 -1.05189 -0.034086 -0.532091 -0.341149 0.115237 0.129394 -0.327446 0.203053 0.442473 1.01787 0.539781 0.278279 -0.998434 -0.665284 0.69932 -0.461607 0.460441 0.588439 -0.690811 0.0374312 -0.158782 0.657559 0.478921 0.178304 -0.205264 -1.11607 0.334112 -0.729502 0.449701 0.6915 -0.0541098 -0.393791 -0.772371 0.596464 0.299853 0.0274008 0.222548 0.729085 -0.926927 -0.405959 -0.200841 0.379388 0.647664 0.886347 0.394771 0.0285581 -1.0805 0.497578 -0.546777 -0.376087 -0.793633 -0.130384 -0.131522 -1.22951 -0.992413 0.295311 -0.47133 0.886819 -0.0497148 0.197824 0.435892 -0.536305 1.00114 -0.797637 0.808477 0.223129 0.0481418 -0.0194775 0.0682752 -0.042287 0.480118 -0.264431 -0.184543 -0.0969129 -0.253206 -0.791265 -0.971159 -0.0246141 0.607091 -0.160846 0.580664 0.876787 -0.334884 0.392985 0.702062 -0.169256 -0.0850522 -0.0881808 -0.382812 -0.385167 0.246738 -0.316208 -0.697798 0.12387 -0.724103 -0.916303 -0.278334 0.504247 -0.245399 0.137356 -0.592133 -0.843299 0.483328 -0.103087 -0.0553283 -0.52698 0.00475986 
0 -0.0166017 -0.496036 0.849226 -0.49825 -0.916355 -0.86056 -0.587414 0.772109 0.0508951 0.899427 0.891678 0.690878 -0.748565 0.0654973 -0.890312 -0.564215 0.899952 -0.489907 -0.475695 -0.837175 -0.954431 0.547253 0.286692 -0.432112 0.674694 -0.0188519 0.526999 -0.201905 0.274391 -0.254193 0.821971 -0.692153 0.190123 0.589662 -0.203075 0.284828 0.756741 0.186279 -0.0080844 -0.0962776 0.143733 -0.168598 -0.231838 0.328461 0.782897 -0.249028 0.81705 0.738665 0.393013 -0.563781 0.755087 0.483068 1.06409 0.267279 0.905734 0.691242 -0.805129 0.479189 -0.709587 0.51978 -0.799845 -0.911658 0.756447 0.368727 0.769092 -0.48352 -0.294632 0.594841 0.562976 0.762184 -0.649264 -0.143823 -0.402036 0.255362 -0.789088 -0.682081 -0.989475 1.01762 -0.956311 0.363284 -0.617783 0.950612 -0.305375 -0.611935 0.0617202 -0.309582 -0.930364 0.21087 -0.86439 -0.595828 -0.147954 -0.709125 -0.439999 -0.489613 0.672721 -0.666305 -0.0079057 -0.69039 0.9202 -0.299319 0.995873 -0.499748 0.620066 -0.411845 0.639172 0.79395 -0.055075 0.601044 0.829822 -0.0401733 -0.0309334 -0.744514 -0.183001 0.670972 -0.345774 0.962069 -0.57837 -0.11956 0.208031 -0.456082 0.195829 0.950756 -0.259616 0.752991 -0.381932 -0.543558 -0.872183 0.545286 -0.282644 1.05568 -0.679205 -0.399605 -0.511651 1.06429 0.342846 -1.15513 0.827502 -0.872852 0.620655 0.635442 -0.0436796 -0.431422 0.904198 0.863464 -0.855336 -0.453981 0.767625 -0.394591 0.280702 0.0155533 0.105559 -0.45784 -0.0495631 0.781366 
0 0.47165 -0.747257 -0.273054 -0.14726 -0.433746 -0.535054 -0.206581 0.706374 -0.183055 0.34967 0.0113942 0.172734 -0.315909 -0.227439 -0.789307 -0.443755 0.65482 0.167583 -0.108343 1.25671 -0.0993518 0.501814 0.558588 0.932127 -0.359774 -0.285735 -0.283148 0.403631 0.534706 -0.0605985 -0.0287211 -0.0510815 -0.192646 0.658515 -1.01832 0.347648 0.791757 0.940961 0.142153 -0.491999 0.129858 -1.14869 0.291133 -0.533249 -0.328456 0.587763 0.0207289 -0.0174651 0.18508 0.744139 0.17899 -0.961413 0.177061 -0.519362 0.359994 0.900934 -0.349844 -0.892328 0.414067 -0.164697 0.398821 -0.582803 0.506091 -0.867039 0.908012 0.889383 0.132316 1.0555 0.134608 -0.351276 -0.318742 -0.78336 0.044198 -0.594358 -0.0552792 -0.199086 0.745454 0.322841 0.0335716 -0.610161 0.839213 1.12804 -0.666197 -0.36662 -0.978775 -0.210903 -0.175851 0.7222 -0.14761 1.09606 0.449868 -0.923347 -1.18283 -0.32825 -0.550879 1.14657 -0.0415022 -0.460769 0.466506 1.01337 -0.689916 0.389269 -0.636319 -0.854756 -0.490058 -0.578261 -0.933476 -0.873738 -0.367493 0.893723 0.325144 0.947739 0.289782 -1.19018 -0.185119 0.0208427 -0.139613 -0.243447 -0.715329 0.636205 0.120972 0.0592156 -0.846012 0.147028 -0.460639 -0.141473 0.16723 -0.602575 0.420938 -0.112444 -0.170553 -0.648258 0.626568 0.295237 -1.1378 0.224877 0.790036 -0.119803 -0.65433 0.366735 0.451736 -0.289541 0.642835 -0.501506 -0.522664 -0.843239 0.910383 -0.139269 0.698205 1.16845 -0.181062 -0.220398 0.284729 -0.0948134 
0 -0.369215 0.250226 0.00803052 0.365481 -0.755218 -1.24176 -0.571049 -0.682296 0.596217 -0.188677 -1.018 0.464303 0.191398 -0.225306 0.186455 -0.234131 -0.167587 0.402783 -0.935294 0.666423 0.468561 -0.0152062 0.376885 -0.158855 -0.955764 0.141682 -0.174924 0.0935346 -0.0671949 0.491329 -0.266964 0.0996706 0.0337109 0.727701 -0.529972 0.115482 0.850003 -0.775253 0.103495 0.398146 0.930466 0.79907 0.670663 -0.148484 -0.188543 -0.720775 0.541466 0.747293 0.288582 0.545202 0.0222939 -0.357596 -0.871013 0.414574 0.447824 -1.25037 -1.4399 0.919739 -0.098575 0.0500868 0.172559 0.476889 0.782062 -0.840497 0.663027 -0.862194 0.508502 0.0642844 0.413054 -0.148551 -0.608484 -0.498268 0.0420584 0.964909 0.262004 0.688153 -0.546225 -0.326778 0.118426 0.896 -0.155738 -0.273523 -0.393906 0.105292 0.237439 0.730211 -0.246135 -0.404078 0.426128 -0.998152 -0.663336 -0.0798893 0.479421 1.1445 0.366111 0.334451 0.71262 -0.585831 -1.06856 -0.450255 0.482566 -0.522357 -0.235304 0.748801 -0.112027 -0.448918 0.278085 0.157329 -0.0796903 -0.47105 -0.567591 0.535343 -0.0979246 0.0473763 -0.230623 -0.49169 -0.0832626 0.694325 0.350881 -0.777175 0.702045 0.0918581 0.267617 0.399634 0.0422162 -0.927917 -0.739333 0.0312501 -0.169174 -0.541483 0.866291 -0.800127 0.168707 -0.965115 0.0562654 0.601422 -0.498908 0.280563 -0.86265 -0.731837 0.46232 -0.0612774 -1.0383 1.09954 0.798099 -0.473505 -1.14445 -0.548079 -0.716041 0.260341 0.205407 -0.619052 -0.124614 -1.06666 
0 -1.03864 -0.521275 0.822695 0.179723 0.490308 -0.567232 -0.249669 0.491505 0.545528 0.426586 0.299041 0.0618172 -0.530867 1.11761 0.479721 -0.45827 0.0117078 -0.762753 -0.714472 -0.0708714 -0.8675 0.224112 -0.127153 -0.493823 0.584289 -0.687685 0.302065 0.729567 -0.0521374 0.441228 0.108317 0.0294177 0.825786 -0.129761 -0.821036 0.324222 0.308962 -0.00480529 -0.219347 -0.0825573 -0.564682 0.884084 -0.880213 -0.154257 0.852298 0.568068 0.383113 -0.130453 0.908534 0.965725 0.74086 0.973501 0.267976 -0.237727 -0.688549 -0.221495 -0.141811 0.625925 -0.638352 0.895651 0.117477 0.475098 -0.0939443 -0.0616063 -0.566573 0.0834196 -0.66408 0.806459 -1.04357 0.135402 -0.547054 -0.492596 0.111338 -0.152696 0.487037 -0.0885669 -0.604642 -0.309476 0.742846 -0.738983 -0.386635 0.611171 -0.867572 0.82485 -0.77064 -0.517989 -0.423096 0.0936095 -0.706369 -0.0405269 0.130871 0.335871 -0.535106 0.938102 -0.74759 -0.094677 0.045783 -0.465487 -0.348904 0.187576 0.630041 0.459437 0.729873 -0.324052 -0.787938 0.0193587 0.689265 -0.453572 0.784618 0.440795 -0.112231 -0.614269 -0.0766699 0.0200446 -0.80641 0.178691 0.701359 -0.0663384 -0.632331 0.863752 0.789725 0.449586 0.102076 -0.744583 0.572059 0.381714 0.151661 -0.496681 0.975677 0.919833 0.695543 0.442537 0.334697 0.460379 -0.690288 0.431132 -0.58039 0.756849 -0.828763 -0.843572 0.0470738 -0.0386719 -0.494777 -0.841977 -1.05271 -0.299319 0.283155 0.696055 0.513732 0.642676 0.506445 0.151351 0.140052 -0.490433 
0 -0.268682 0.503068 -0.58024 0.277818 0.399289 -0.853979 -0.554002 0.555385 0.825254 -0.609226 0.257566 0.0915384 -0.763605 0.426245 0.442918 0.237981 -0.0257337 -0.0732336 0.158666 -0.0699597 0.162637 1.0308 1.09176 -0.274836 0.387401 -0.0304871 0.703986 -0.982266 -0.460154 -1.05871 -0.420766 0.191438 -0.8443 -0.32147 -0.590495 0.843216 0.331701 0.445548 0.450591 0.139757 0.470988 -0.125114 -0.236197 -0.789086 -0.745944 -0.743494 -0.481831 -0.297703 -0.194422 1.14492 0.338757 0.727833 0.353461 0.445757 1.20337 0.528252 0.0755978 0.651443 0.98258 0.776529 0.603753 -1.00019 -0.00552951 0.543064 -0.158024 0.210911 0.311313 -0.661692 -0.292302 -0.414313 0.298932 -0.852622 0.518723 -0.704985 -1.05807 0.154643 -0.704411 -0.197509 -0.532397 0.442545 0.226762 0.932728 0.335454 -0.222769 -0.00117274 -0.184384 -0.647105 0.607177 -0.644277 -0.827318 0.313091 0.904238 -0.956997 -0.729963 0.730263 0.552702 0.672034 0.832525 0.71442 -0.56841 -0.141771 -0.251524 0.137562 0.553738 -0.682553 0.511892 0.89164 0.809005 -0.931092 -0.624097 -0.278058 0.216743 0.977336 0.701216 -0.883891 -0.0541932 0.0799637 -0.302919 -0.449672 -0.0618996 -0.822589 -0.489441 -0.136321 -0.658379 -0.0171958 -0.591587 0.112653 -0.404025 -1.10474 0.33505 0.152688 -0.146619 -0.389625 -0.686918 -0.779036 0.225693 0.158108 -0.476141 -0.92285 0.314835 -0.935291 -0.116561 -0.062456 -0.843587 -0.294763 -0.197537 -0.00148164 0.125791 -0.258947 0.108174 -0.344698 0.119782 0.360833 0.799555 
0 1.24852 0.776916 -0.0204174 -0.71046 0.647733 -0.523988 0.404165 -0.206454 0.259647 0.100558 -0.313324 -0.337123 -0.175859 -0.845261 0.335113 -1.37218 -0.110259 0.952658 0.203277 0.5216 -0.196128 0.523293 0.80954 -0.715832 -0.531433 -0.212962 -0.470758 0.319208 -0.922489 0.152459 -0.314443 -1.09004 0.33515 0.895881 0.0376982 0.39627 -0.805988 0.992967 0.52278 0.719197 0.418808 -0.955778 -0.501265 -0.727555 -0.379699 0.368116 -0.779968 0.518008 0.674767 0.389244 -0.523911 1.08421 -0.174421 0.590275 -1.13078 0.00659929 -0.383718 -0.556399 -0.634839 0.0406354 -0.465283 0.63602 0.0427495 0.535581 0.324678 0.468013 0.395504 0.893337 0.458555 -0.555043 0.506177 -0.0978568 0.111131 1.01206 0.305011 0.194828 -0.0352382 0.284493 -0.419065 -0.850624 -0.820462 0.653195 -0.466209 -0.418725 -0.0436029 -0.188914 0.700461 0.765247 0.0709198 -0.402231 -0.0308647 -0.131782 -1.14706 0.580023 0.17622 0.540851 0.419677 -0.874383 0.574113 0.00613358 -0.427571 0.215594 0.845701 0.581455 -0.678111 -0.918569 0.0159339 0.404353 0.539737 -0.350835 -0.585293 -0.40692 0.633525 -0.321001 -0.718741 0.228352 -0.238601 -0.207913 -0.190169 -0.904637 0.248044 0.470287 0.30941 0.291365 0.278135 -0.763488 0.0116404 -0.602642 -0.605724 -0.666097 0.501171 0.59571 0.71168 -0.0231186 -0.376249 -1.58044 0.803566 1.21144 -0.962125 0.295811 -0.481089 -0.948903 0.367343 -0.869132 -0.246852 -0.717157 0.504318 -0.635032 0.0190555 0.151319 -1.24933 -0.58029 0.327175 1.34951 
0 -0.390957 -0.95292 -0.589093 0.379289 -0.746565 -0.249268 -0.262347 0.314082 -1.01692 0.73859 -0.890069 -0.960809 0.315363 -0.902963 -0.827564 -0.337475 -0.596789 -0.365049 -0.999483 -0.453158 0.954357 -0.594209 0.647542 -0.771082 0.554744 0.57227 -0.296002 0.857586 -0.000785615 -0.481426 0.569142 0.784117 -0.492088 1.02527 0.169464 -0.112331 -0.428237 0.877705 -0.809887 -0.216088 0.623762 -0.755795 -0.11814 -0.0405182 -0.72575 -0.027327 0.728764 -0.217212 0.52695 0.86142 0.362774 0.633328 -0.709223 0.090114 0.735988 0.863446 -0.417881 -0.572179 0.736345 0.409778 -0.0898412 0.2123 0.293347 0.460988 0.24073 -0.604898 -0.62121 -0.987183 -0.829905 -0.530748 -0.306113 0.868915 -0.0980311 0.660954 -0.162061 0.192119 -0.314157 -0.47281 0.949056 -0.600695 -0.68281 0.345508 0.927597 -0.344075 -0.608047 0.701944 -0.485709 -0.184025 -0.839734 -0.721666 -0.521325 0.113156 0.592015 0.649179 -0.415524 -0.319855 -0.839949 -0.122242 -0.168985 -0.593043 0.433596 0.576264 -0.713683 -0.682839 0.207789 0.0713176 0.527686 0.816099 0.753672 0.447755 -0.753096 -0.945096 -0.269615 -0.767787 -0.277241 0.182083 0.933303 0.210723 0.981771 -0.947248 0.506354 -0.428133 0.140469 0.0296103 -0.754025 0.698077 0.787185 -0.736538 -0.357011 -0.359687 -0.385859 -0.998251 -0.747455 -0.0928731 -0.700954 0.192442 -0.895549 0.731774 0.216608 0.775361 0.149128 0.413996 0.838448 1.01135 0.607222 -0.520252 0.071776 0.55379 0.810392 0.0392205 0.578146 0.258284 0.469514 -0.267715 
0 0.322909 -0.575841 -1.09958 1.02752 -0.0648976 0.177215 0.221581 0.357205 0.177023 0.332041 0.314025 -0.37931 -0.195818 0.427344 0.804703 0.732117 -0.753415 -0.35623 -0.369633 -0.797421 -0.554647 0.732983 0.672803 -0.804379 0.496027 -0.565807 0.376654 -0.288263 -1.00803 -1.11463 0.553599 0.284809 -0.287231 -0.128391 0.612439 0.708764 1.01834 0.910737 -0.180781 -0.0127707 0.361112 -0.831728 -0.386713 0.346843 0.314765 -0.385819 -0.792135 0.916587 0.81706 0.602565 -0.656092 0.602077 -0.138726 0.0642582 -1.44387 -0.237865 -0.561787 0.911476 0.275608 -0.549996 0.644406 -0.607204 -0.836331 -0.474343 0.312979 0.763084 -0.133875 0.799623 0.551852 -0.196465 -0.521129 0.252019 0.336658 0.423672 0.996631 -0.468147 -0.638183 -0.353995 -0.455978 0.58335 0.805894 -0.164687 0.537934 -0.679686 -0.0224949 0.135516 0.0257782 0.555091 0.534133 -0.467006 -1.07544 0.186909 0.138627 -0.038189 0.627808 -0.33462 0.862365 0.898149 -0.736453 0.119199 0.222758 -0.438231 -0.232969 -0.930218 -0.549931 -1.39331 0.0896285 -0.239485 -0.946501 1.08157 0.803818 -0.884801 0.0924793 0.526168 0.00801373 -0.955194 -0.281895 0.634883 0.882555 -0.65762 -0.54482 -0.429935 0.17087 0.416813 -0.0273321 0.264086 -0.523425 -0.485858 -0.454418 -0.564369 -1.18124 0.64917 0.177738 -0.388003 -1.03669 -0.15931 0.437599 -0.182563 0.149367 -0.0829129 0.282545 1.01406 0.572564 -0.963363 -0.445868 -0.874201 -0.86187 -0.533653 -0.758529 -0.835453 -1.17519 -0.283044 -1.01135 0.463202 
0 0.262042 -0.855594 -1.08156 0.557424 0.107885 -0.522 -0.359884 -0.347281 0.532559 0.923373 0.160678 0.129584 -0.744805 0.82685 -0.150683 -0.496589 0.515437 -0.966119 0.559957 -0.0451896 -0.324641 0.744888 0.611339 0.27612 -0.986446 0.221644 0.771373 -0.465098 -0.0306833 -0.00855331 0.0648193 -0.688513 0.488627 0.0852464 0.270819 -0.449323 0.705177 -0.569858 0.315233 -0.072632 -0.513743 0.429886 0.728553 -0.0504048 0.661611 -0.61426 0.416034 -0.335602 -0.14857 -0.310722 1.00142 -0.589436 -0.390362 -0.761502 0.744296 -0.296328 -0.601832 -0.131652 0.505139 0.780382 -0.372454 1.38998 0.939144 0.375501 -0.139104 0.274447 0.440842 0.94152 -0.950778 -0.545769 0.197606 -0.68174 -1.06305 -0.185118 0.426499 0.578048 0.116853 -0.568098 -0.156836 0.481935 0.559471 -1.02928 -0.914279 -0.49681 -0.244116 -0.474756 0.473962 0.625993 0.498085 -0.752463 0.0697846 0.822832 -0.598559 0.255352 0.0678596 0.0351196 -0.256232 -0.219136 -0.480585 -0.442985 0.267668 0.354681 0.0153002 0.447263 -1.16394 -0.888372 -0.225494 0.0962456 0.0087969 0.54365 0.219812 -0.688904 0.130098 0.632362 0.126277 -0.45471 0.376689 0.816229 0.241132 -0.149193 -0.945877 -0.451408 -0.537765 -0.693082 0.350068 0.351026 0.252947 0.970414 -0.916347 -0.635819 0.68551 0.691187 1.14792 0.0609573 -0.948706 -0.366406 -0.0588365 -0.0549154 -0.472694 0.871135 -0.765507 0.0267948 -0.621803 0.95327 1.07335 0.098685 0.750425 1.11989 -0.0278665 0.467282 -0.718934 -0.214313 0.737152 -0.135193 
0 -0.233048 -0.764773 -0.532269 -0.604887 -0.536773 -0.351198 -0.690756 0.725196 -0.56207 0.0511217 -0.838678 -0.637091 0.926892 0.476434 0.698468 0.740768 0.811258 -0.792444 -1.05109 0.605412 -0.890969 0.118788 0.425378 0.567984 -0.988163 -0.207891 0.855756 -0.0887061 -0.699579 -0.42857 -0.927825 0.151852 -0.196091 -0.398677 0.476915 0.262361 0.00564213 0.813321 -0.0658938 0.619129 -0.174461 0.0816167 -0.932535 -0.198029 -0.563243 0.752241 -0.51933 -0.724182 0.896784 -0.333175 0.890082 -0.958994 0.731843 0.372558 0.613105 0.764298 -0.988449 0.494697 -0.371778 -0.899898 -0.941273 -0.374236 0.419538 -0.147471 0.315929 -0.0933124 -0.739009 -0.479806 -0.309244 0.190107 -1.03105 0.524825 -0.662972 -0.793862 -0.712731 -0.218486 0.911106 -0.243532 -0.0794824 0.8774 0.320093 -0.172179 0.946843 0.0511179 -0.791717 0.627064 -0.219945 -0.842443 0.144299 0.485744 -0.341917 0.232979 -0.763218 0.965375 -0.849468 0.472872 -0.10826 -0.645331 -0.936979 0.622245 0.612189 -0.770047 0.146913 0.850345 -0.787041 0.381281 -0.251756 -0.794868 -0.698662 0.668251 -0.846868 0.604372 -0.638877 -0.843678 -0.348014 -0.418402 0.795697 0.356132 -0.213734 0.0738478 -0.17412 0.424272 -0.891916 0.0222003 0.246472 -0.676946 -0.427472 -0.94241 -0.306698 -0.436394 0.623028 -0.795993 -0.287175 -0.198163 -0.683129 -0.0844348 -0.732182 -0.344581 0.324306 -0.539554 -0.681807 0.363768 0.982959 -0.168003 0.523402 -0.593821 0.400666 0.361402 0.949345 -0.85914 -0.837266 -0.312117 0.473418 -0.708961 
0 -0.178077 -0.677168 -0.569048 -0.467126 0.580434 0.111752 -0.766679 0.478709 0.742826 0.413264 0.724284 0.252398 0.80405 -0.453091 -1.50105 0.352507 0.00325274 0.677694 0.644584 0.494806 0.472562 -0.679545 0.0224083 -0.669909 -0.593347 0.426887 -0.45144 0.321781 0.0951632 0.339773 -0.0336132 0.667994 0.527622 0.264286 -0.601965 -0.684365 -0.517965 -0.283513 -0.387365 0.870137 0.871602 0.697685 -0.843505 0.460907 -0.41585 -0.585164 0.483849 -0.0119406 -0.771588 0.389282 -0.157803 -0.0698823 0.826283 0.192437 0.72779 -1.06829 -0.397722 -1.31739 -0.234195 -0.497127 0.318072 -0.693801 -0.180328 -0.28385 0.574091 0.291711 -0.106095 0.854306 -0.111117 0.69066 0.216968 0.388169 0.972728 -0.153706 0.0465089 0.707728 -0.233518 -1.28718 -0.692808 -0.182458 -0.152637 0.577976 -0.688531 -0.125927 0.818367 0.480262 -0.621314 0.0151794 -1.39963 -1.14744 1.28034 0.0339202 -1.06319 -0.357121 0.50163 0.250547 0.693434 0.260278 0.0748655 -0.320047 0.127696 0.354317 -0.381466 -0.75579 0.490376 0.267223 -0.621222 -0.94196 0.353669 -0.28675 0.163413 -0.327223 0.25615 0.357786 0.60747 -0.993972 -0.0444629 -0.472747 -0.772513 0.27763 -0.618577 0.463921 -0.520286 -0.258035 -0.227614 -0.353225 -0.0693689 0.613068 0.94175 -0.620721 -0.0358816 -0.122688 0.538488 0.28703 0.266569 -0.00165973 -0.523568 0.481043 -0.195726 0.480224 -0.267443 0.175639 -0.957381 0.536865 0.351098 0.343465 0.562741 -0.580585 0.577145 1.13968 0.433239 0.528031 0.841185 1.10749 
0 -0.768678 -0.474001 0.331874 1.10331 -0.303362 0.377509 -0.268516 -0.0615263 -0.413613 0.478963 -0.00720268 0.782482 -0.878226 0.325511 -0.184161 0.843594 -0.248503 -0.530252 0.660683 -0.339351 0.373765 0.488029 0.920568 0.288931 -0.106327 0.0725965 -0.0639433 -0.454757 -0.488749 -0.515754 0.598001 0.123399 0.585004 -0.159118 -0.269856 0.776973 -0.506203 0.67012 -0.427967 0.310591 0.54596 -0.0237837 -0.292747 0.930145 -0.301256 0.183042 0.280555 0.198684 0.802237 0.958813 0.59478 0.310543 -0.404311 0.657026 -0.547443 0.870907 -0.0393527 1.01966 -0.472475 -1.13438 0.00175142 -0.966467 0.330252 0.528133 -0.0677633 -0.671482 0.115767 0.398664 -0.715328 0.167169 0.173355 0.957956 1.1682 0.705494 0.3346 0.0502937 0.151593 0.168038 0.75267 -0.483382 0.385799 0.0999649 0.794495 1.66182 -0.477067 -0.344778 0.764718 -0.158494 -1.01367 -0.510039 0.692902 0.089682 -0.459566 -0.302499 -0.411944 0.633203 -0.252742 0.988315 -0.036448 0.0989153 -0.497286 1.20053 0.250283 -0.772746 0.471422 -0.168007 -0.163392 -0.722775 -0.745828 -0.18044 -0.350938 0.226992 -0.887187 -0.46934 -0.333147 0.0317237 -0.0160774 -0.341469 -0.888126 -0.21238 -0.245071 0.535745 -0.893721 0.219942 -0.813948 -0.214909 -0.204423 0.249596 -0.953617 1.15864 -0.204239 -1.03669 0.297393 0.789172 0.466279 -0.546708 -0.315171 -0.0354427 -0.710591 -0.398646 -0.27227 -0.0803418 0.464244 -0.75402 0.343191 -0.692253 0.417098 -0.446918 -0.456766 0.315124 -0.600449 0.457459 -0.138086 0.0692854 
0 -0.127143 0.318872 0.759967 -0.366236 0.208449 -0.221272 0.915356 1.08538 -0.856695 -0.48178 0.635802 -0.356683 0.603965 -1.38601 0.110897 -1.31631 -0.950956 -0.717834 0.891766 -0.812619 -1.35088 0.685923 -0.335481 0.217185 -0.399078 0.32258 0.429342 -1.16958 -0.271648 0.373057 -0.844882 0.172685 -0.305867 -0.123941 -0.328593 1.12197 -0.0623697 0.79763 0.624421 0.418499 -0.271838 0.0360365 1.62781 -0.978074 1.01028 -0.536152 -0.511567 0.790584 0.791394 -0.749827 -0.503603 0.800311 -0.0178443 -0.0489183 -0.0486371 -0.364387 -0.882508 -0.788987 -0.0283473 0.0380793 1.56561 0.946358 0.0816096 -0.594196 0.745123 0.666316 -0.532942 0.22068 -0.46338 1.01566 -0.540968 -0.889143 -0.210727 -0.0759961 -1.02336 0.953317 0.875865 -0.384685 0.316931 -0.107059 0.415122 -0.391774 -0.578705 0.156194 0.389158 -0.064937 -0.755481 0.674286 0.620441 -0.176314 0.18342 0.469959 -0.32528 -0.61165 0.907366 -0.725289 0.993025 1.17538 0.759831 0.296612 0.230451 1.28655 0.526996 -0.666859 -0.467155 0.664867 -0.761578 0.673182 0.0514973 1.18174 0.0327405 -0.875408 -0.386611 0.544722 0.456582 0.251463 0.206483 0.965595 0.602638 -0.4281 -0.275215 -0.373557 0.66995 0.3504 -0.530778 0.790759 1.0351 -0.584713 0.70453 0.286512 0.797351 0.0586071 0.736731 -0.296387 0.478794 1.04296 -1.39825 0.44024 1.02862 -0.124535 -0.0105398 0.255203 -0.389538 0.96968 -1.62858 -0.505254 0.970512 -0.045947 -1.563 -0.0823282 -0.413702 -0.226722 0.952453 0.0470238 
0 -0.557302 -0.334393 1.02262 -0.421268 0.708697 0.777705 -0.229978 0.178634 -0.224665 -0.193658 -0.536609 -0.977758 -0.367033 -0.568265 -0.623022 0.344789 0.388326 -0.589132 -0.641191 0.284403 0.349411 -0.302198 0.0848786 0.612535 -0.453066 1.24066 -0.0148546 -0.116378 0.228774 1.03048 0.723302 0.95214 -0.840533 0.0823209 -0.413694 -0.541996 -0.27278 -0.69956 0.402823 0.466698 0.515143 0.748998 -0.873801 1.10141 0.58845 -0.403473 0.497702 0.255561 0.4539 0.702318 -0.135381 -1.02742 -0.538054 0.668202 0.833562 -0.167025 0.311724 -0.118566 0.283043 0.273781 -0.0882993 0.540545 -0.334906 0.126656 -0.366149 0.0504874 0.208293 0.385936 0.642116 -0.422199 -0.276116 0.0251281 0.195973 -0.523535 0.27087 0.671707 0.509524 -0.610373 -0.535091 -0.211323 0.861523 0.47898 -0.231387 -0.980896 0.349284 -0.00469316 -0.00321988 -0.543255 0.470388 -0.325596 0.204715 -0.519167 0.667653 -0.888864 0.767169 -0.48567 0.2439 0.294296 0.854479 0.0416957 -0.402703 0.280438 -0.574768 0.402641 0.28957 0.641415 -0.517651 0.0997701 -0.806521 0.56069 0.672982 -1.10163 -0.565112 -0.400618 -1.23184 0.681908 -0.363965 0.323158 -0.477077 -0.553782 -0.0672012 -1.17864 0.224823 -0.384689 -0.667179 0.358408 0.227607 0.83749 -0.484847 -0.129439 0.202378 -0.0931224 0.506864 0.765723 -0.855374 0.0120195 0.0048386 1.70235 0.55762 0.0230902 0.487512 0.38367 0.233159 -0.581876 0.73757 0.15108 -0.335455 0.0822411 0.414 -0.282966 0.291124 0.0198269 0.449383 -0.282073 
0 0.850893 -1.09434 -0.846053 -0.152363 -0.270034 -0.60804 0.535548 0.727198 0.791635 0.290822 0.0315706 -0.615168 -0.594576 0.172166 -0.398181 0.643154 -0.970603 0.809053 -1.66715 -0.249374 0.943291 0.202917 0.161456 -0.808126 0.132296 1.05976 -0.778766 0.286068 0.0852112 -0.0350844 0.30841 0.907929 0.0134641 -0.500024 -0.620669 1.2651 0.759688 -0.743736 0.584904 0.862745 0.628268 -0.470621 -0.753549 0.956303 0.0313824 0.0155628 0.0982067 1.288 -0.259092 0.803974 -0.173277 0.181051 0.147583 0.952415 0.132294 -1.35702 0.21924 0.171374 0.34844 -1.04889 -0.686224 -0.32281 -0.924281 1.21605 -0.986576 -0.246531 0.601268 0.895107 -0.0869539 0.500433 1.23898 -0.435963 -0.585199 -0.472161 -0.435452 -0.564096 1.15971 0.898853 -1.32366 -0.569808 0.0473194 -0.0227232 0.255661 -0.944048 -0.409259 -0.45696 -0.794381 0.725309 1.25917 1.44721 -1.07696 -0.337758 0.249776 -0.636034 -0.320413 -0.443972 -0.216646 -0.428891 -0.133437 -0.320677 -1.20306 -0.880825 0.479377 -0.264141 0.214536 0.940442 -0.212338 -0.942142 0.266283 0.298116 -0.176854 -0.0363391 0.93814 0.930868 -0.0857784 -0.571097 -0.279366 -0.730738 -0.557777 -0.625652 -0.269953 -0.477161 0.0989406 0.461661 -0.337608 1.4004 -1.00337 0.601197 -0.401997 0.000811805 -0.593109 0.262751 0.852347 0.34323 0.556912 -0.36147 0.118835 -0.224113 0.18904 -0.629998 0.816564 0.286186 -0.430082 0.775691 0.998314 0.700114 -0.536017 -1.04675 -0.675395 -1.03697 -0.35202 -0.281405 -0.210142 0.865197 
0 -0.94552 0.154987 -0.678957 -0.917659 0.491444 1.58628 -0.490752 -0.70444 0.655419 0.453846 -0.413636 -0.825741 -0.717179 0.32267 0.205878 0.264213 -0.0560085 -0.166802 0.370629 -0.642621 0.251771 0.546032 -0.467615 -0.499616 0.500014 0.136796 0.0661813 -0.794589 -0.147072 -0.685555 -0.0697365 -0.227367 -1.35097 -0.730353 0.623686 0.876442 0.645425 0.269534 -0.362021 0.497688 0.290475 0.158756 0.632418 0.234289 -0.979043 0.402271 -0.721768 0.0245064 0.359812 0.449249 0.524197 -0.916436 -0.806933 -0.192493 -0.317501 -1.3983 -0.714172 0.241595 0.0840957 0.593732 -0.949805 0.930915 -0.411865 -0.814701 0.926067 0.859349 0.000602779 1.12165 0.485871 0.00423144 0.364551 -0.145392 1.11739 -0.200095 -0.814182 -0.91616 1.26318 -0.597244 -0.313879 0.246476 -0.819811 -0.11978 0.278697 -0.00637052 0.74726 -0.666516 -0.0132122 -0.580493 1.03463 0.2383 1.07874 -0.895592 0.656568 0.136047 -0.199409 0.0869829 -0.654637 -0.20604 -0.0903378 -1.1535 0.848716 -0.332212 -0.401467 0.560046 0.499394 0.28339 0.232039 0.848992 1.32176 -0.491109 0.0292428 0.719241 0.978638 -0.520665 -0.684126 0.906144 -0.299771 0.491491 -0.738205 -0.34826 -0.0218387 -0.629069 -0.806453 -0.572199 -0.245055 -0.323963 0.931905 -0.0382193 0.365083 -0.231186 0.661412 -0.773159 0.00780875 -0.17178 -0.968457 -0.00462425 0.593652 0.0351038 -0.00108756 0.388211 -1.33804 0.435216 0.28698 -1.01442 -1.31771 0.775458 1.03627 -0.435388 0.66378 -1.18581 -0.630391 -0.364361 -0.562442 -0.291056 
0 0.334253 0.756264 0.143291 -0.501104 0.281812 0.830711 -1.28144 0.393773 0.150085 -0.367338 0.770849 -0.33831 -0.04407 -0.11873 0.103531 1.07667 -0.122581 -0.104791 -0.151046 0.184175 -0.0194434 0.23675 0.495401 0.219288 -0.346868 1.06552 -1.21147 0.120068 -0.620782 0.00387739 -0.814541 0.253284 -0.767368 -0.601963 -0.690876 -0.322356 -0.933862 -0.615877 -0.130041 0.667948 -0.132927 -0.537134 -0.603538 0.428734 0.0660991 0.59821 0.154688 -0.592917 -0.557452 -0.590206 0.788114 0.315472 0.933628 0.695208 0.0542023 -0.607595 -0.0126874 -0.460909 0.550371 0.546903 -1.05226 0.619249 -0.209611 -0.752675 -0.786601 -0.296775 0.351356 -0.487755 -0.380732 -0.466584 -0.713682 -0.582398 -0.801449 -0.797281 0.306759 0.337541 0.754465 -0.772739 0.568205 -0.998887 0.305506 1.0754 0.500283 -0.559852 0.163702 -0.415321 -0.277646 1.10099 0.637322 -1.05098 0.325071 0.69927 1.12305 0.594076 -0.911235 -0.813805 -0.172209 0.674279 -0.364552 -1.14137 0.369322 0.45071 -0.706089 0.878947 -0.0947552 0.778722 0.240413 -0.361629 0.0491311 -0.473762 -0.354738 0.667598 -0.227247 0.709278 0.663646 0.561342 -0.59416 0.136503 0.409096 -0.200039 -0.0270287 -0.0421004 -0.821872 -0.187001 -0.880995 -0.911862 0.162632 0.77199 -1.07236 0.734439 0.731545 0.80493 -0.50251 -0.238554 0.4635 0.12242 -1.01566 -0.461067 0.184716 -0.539279 0.278403 -0.742646 0.504027 -1.09727 -0.788355 0.892215 0.406573 -0.143523 -0.354132 0.218966 -0.139016 0.801351 0.263242 0.590301 
0 0.708842 0.319127 -0.071638 0.345823 0.537018 -0.104846 0.408975 0.84176 0.0321097 -0.0377886 0.200848 -0.592136 0.217447 0.627751 -0.89839 0.717738 0.727545 -0.886085 0.144493 0.827627 -1.09281 0.184838 -0.0995713 -0.117219 0.41581 -0.840947 -0.822186 -0.411652 0.249074 0.526865 -0.0636371 0.251088 0.35219 0.531479 -0.402706 -0.0960422 0.081542 0.256741 -0.33299 0.893807 -0.356231 0.540741 -0.379932 1.02305 0.698163 -0.719466 0.0268617 -0.0923254 -0.457596 -0.837147 -0.0878661 -0.573231 0.702518 -0.83992 -0.811459 -0.0904755 -0.523983 -0.456317 1.05223 0.454427 1.0702 -0.289691 0.0837744 0.732949 -0.231203 0.890972 -0.809958 0.116795 0.659702 -0.256799 -0.142417 0.959538 -0.380905 -0.0635432 0.339905 -1.06302 0.348472 0.694843 0.545913 -0.368306 1.11502 -0.678366 0.201244 0.638366 -0.611978 0.346684 0.0360606 -0.480987 0.44973 -0.114064 -0.803262 0.546905 0.857611 0.861737 -0.07357 -1.32681 0.388684 -0.0362154 0.308571 -0.143031 -1.04339 -0.438726 0.156696 -0.405513 0.15949 -0.228491 -0.391681 -0.201757 0.303666 0.122914 0.479176 0.0351161 0.0753646 -0.246905 0.187817 1.31985 1.04277 -0.910626 -0.318058 0.285927 0.0460303 0.306169 -0.0742443 -0.411298 0.372383 0.766393 -0.282971 -0.0665474 -0.126075 1.08379 0.702302 0.0159637 -0.808549 -0.430181 0.666416 0.124427 -0.249648 -0.281389 -0.393173 -0.568411 0.75395 0.735929 0.726888 0.0601784 -0.280938 0.00376258 0.0636544 -1.12789 -0.0674473 1.10227 1.18175 -0.684973 -0.41936 -0.15165 
0 -0.977748 -0.628676 0.702384 0.108176 0.60336 0.513644 -0.875791 -0.288586 0.648674 -0.38538 -0.032404 0.30324 1.12047 0.741499 1.02498 1.06288 -0.00749624 0.962888 0.478995 -0.489652 -0.440882 -0.027448 0.332591 -0.620288 1.01257 -0.198165 0.829156 -0.571811 0.428994 -0.251798 0.0903367 -0.761741 -0.680274 -0.39191 0.254219 -1.02436 0.132287 0.102339 -0.273656 -0.84992 -0.348055 -0.0995581 0.524294 -0.934358 -0.0596198 0.466697 -0.807947 -0.800935 0.0667416 0.997877 0.118416 0.382438 -0.142488 -0.846212 0.286269 0.141789 0.0249358 0.348478 -0.4286 0.0799193 0.305157 0.940101 -0.00052629 -0.298149 0.257018 -1.03693 -0.732711 -0.237138 0.467936 -0.292568 -0.849292 -0.674785 0.618271 -0.125396 -0.11763 -0.659067 0.63145 -0.227689 -0.0681659 0.196116 0.0194679 -0.601881 -0.627708 0.390634 -0.448155 0.837163 -0.95292 -0.811194 0.455146 -0.0412118 0.298661 0.189398 0.330042 -0.871825 0.500231 0.350245 -0.321863 0.575589 -0.132089 -0.792327 -0.576123 0.819166 -0.200378 -0.536813 -1.01664 0.207366 0.291087 -1.23209 0.717619 0.690399 0.141236 -0.109853 -0.714659 0.312491 -0.771718 1.55373 0.331855 -0.420499 -0.860226 -0.171656 0.513487 0.393921 0.519025 -0.389893 0.869404 -0.203902 -1.06627 0.487936 0.23631 -0.249625 0.753928 0.349104 0.444773 -0.931632 -0.829559 -0.392703 -0.107897 -0.0146161 0.0903165 -0.354035 -0.309986 -0.560118 0.377614 1.07827 0.956467 0.577083 -0.0934873 -0.320855 0.480556 0.957525 0.647072 0.389994 -0.345911 0.226347 
0 -0.61463 -0.934212 -0.587526 0.836156 -0.0891768 0.474114 0.487738 -0.149424 0.0389803 0.695632 0.0855682 0.486593 -0.5138 -0.113566 -0.492498 0.203502 0.153015 0.685194 0.17729 -0.644268 0.031595 -0.112826 0.538018 -0.00334192 -0.62658 0.484525 0.920796 0.736019 -0.662313 0.391003 0.512053 -0.664337 0.160753 0.287721 -0.577203 -0.487387 -0.761966 -0.820321 -0.391066 0.329806 0.899579 0.472588 -0.104404 -0.257551 0.103403 1.37476 -0.975726 -0.131017 0.172813 0.121903 -0.232329 -0.473074 0.491249 0.147455 -0.306784 0.482224 -0.201246 -0.593248 0.847842 0.679187 -1.35256 0.128891 0.841125 0.585072 -1.01611 -0.691385 0.880652 -0.480351 -0.503402 -0.317558 -0.23652 -0.760258 -0.0995952 1.1563 -0.757674 -0.757702 1.12968 0.0383614 -0.0505616 0.409177 0.785275 -0.168253 -0.983275 0.752611 1.35189 0.366214 0.179454 -0.0565413 -1.37891 -0.327265 -0.871328 -0.979873 -0.908249 -1.36236 1.10499 -0.881254 -0.679396 -0.101874 0.0113237 0.00127555 0.935882 0.299799 0.489994 -0.953923 0.658405 -0.402374 -0.220418 0.601113 0.564813 -0.592341 0.242014 0.134089 -0.398261 0.287333 -0.447957 -0.383113 -0.246871 0.662706 0.487748 -0.50214 -0.40226 0.769959 -0.575103 0.070923 0.219302 1.0166 0.469875 -1.33055 0.344279 -1.00217 0.137677 0.478381 -1.37924 -0.235662 -0.405275 0.346733 -0.786645 -0.843743 -0.181093 1.11283 -0.743676 -0.381241 -0.0801713 -0.219512 0.489121 0.548238 0.918518 0.529089 0.249397 -0.229043 -1.32093 0.476736 -0.616258 -0.151473 
0 -1.24413 -0.712726 -0.179651 -0.654825 0.606192 -0.289726 1.04033 -0.484069 -0.0843732 1.20441 -0.479368 -0.504505 -0.706814 -0.11465 0.401588 -0.466079 -0.106955 -0.084494 0.463382 0.629054 -0.122737 -0.172573 0.139514 0.0436251 -0.923235 -0.972318 -0.00103923 0.748389 -0.254586 0.898972 -0.0154578 0.54055 -0.835549 0.25713 0.526306 0.444329 -0.290233 0.0395724 -0.112574 0.0709962 0.380254 -0.0540312 0.481507 0.980415 0.259112 0.337243 -0.844967 -0.691125 0.79135 0.227428 -1.05248 -0.193615 -0.545231 0.0334475 0.88479 -1.0383 0.523068 -0.530155 -0.232795 0.0594469 -0.474668 0.379533 -0.55512 -0.237427 -0.115412 -0.839232 -0.0393684 -0.186188 0.211677 0.0719752 -0.753172 0.0855736 -1.09498 0.756029 -0.0125061 0.475822 -0.198222 0.455962 -0.525326 -0.735896 -0.39513 -0.757074 -0.107632 -0.0302185 0.695376 0.155252 0.102063 0.922341 0.036506 0.288623 -0.264957 -0.0589334 -0.642399 0.127409 0.0244878 -0.169489 0.337369 1.13608 -1.13208 0.572847 0.263013 -0.865086 -0.0694798 0.934082 0.825135 0.556841 0.0612711 -0.407407 -0.275763 0.11632 -0.0266196 0.250063 0.673275 0.723714 -0.519088 0.206532 -0.288629 0.217851 0.0432001 -0.53908 -0.430064 0.304451 -0.115151 -0.0187058 0.117029 -0.56115 -0.985483 -0.956473 0.895035 -0.137608 0.352013 -0.0552386 -0.670252 0.659038 -0.160714 -0.516583 -0.0818449 0.487453 0.0434692 -0.257252 0.00285572 -1.29149 -0.794754 0.237896 0.721658 -0.514126 -0.626947 -0.166366 0.962066 0.287117 0.597289 -0.107668 0.262266 -1.26172 
